0.000000 -0.131722 0.148267 -0.070715 -0.509438 -0.128448 -0.831699 -0.370894 0.376440 0.825585 -0.400244 -0.898436 -0.019824 0.809805 0.393686 0.674231 -0.200896 -0.463582 0.577945 -0.484704 -0.415756 0.390380 -0.875444 0.411008 -0.184034 0.934884 0.593816 0.267810 -0.910713 -0.350514 0.912110 -0.163742 -0.003636 0.883640 -0.665281 0.615214 -0.098344 -0.872736 -0.073771 0.133598 -0.618831 -0.691367 0.200118 -0.611683 -0.551386 0.852283 0.317156 0.434627 0.769540 -0.345890 0.625233 0.297370 -0.104892 -0.916606 0.599223 -0.862345 0.569139 -0.479155 0.841037 -0.682837 -0.448080 -0.873629 0.911074 0.414761 0.879957 -0.563566 0.141057 0.744735 0.752889 -0.188429 -0.933520 0.334206 0.994805 -0.315859 -0.644105 0.527871 -0.069420 -0.747326 -0.313208 -0.094329 0.607034 0.415530 -0.195483 0.518227 -0.162606 -0.923606 0.961959 -0.360617 -0.889768 -0.325981 -0.769040 0.748812 -0.711313 0.957701 0.074734 0.050864 0.872444 -0.838653 0.753691 -0.707383 -0.988838 0.591372 -0.814555 -0.225141 0.057692 -0.367986 -0.732779 0.180470 -0.844864 0.370180 -0.381417 -0.480346 0.818054 -0.960023 0.895617 0.628858 -0.789122 -0.767541 -0.066166 -0.055202 0.216365 0.439759 -0.962161 0.965272 -0.675014 -0.953368 0.747707 0.709512 0.771672 -0.511731 -0.670312 0.072206 -0.430261 0.598368 0.763949 -0.312582 0.431840 -0.066350 0.860880 0.803249 0.207391 -0.377444 0.297508 0.209287 -0.508030 -0.463057 -0.604836 0.513570 -0.437350 -0.536394 0.825293 0.706162 0.468771 0.640367 0.641817 -0.976851 0.063796 0.211923 -0.205098 0.914267 0.088251 -0.759748 0.915418 -0.577408 -0.492541 -0.140579 -0.705003 -0.981566 0.822918 0.785340 -0.796367 -0.543139 -0.537599 0.570885 0.856581 0.563090 -0.141547 -0.985588 -0.782293 0.008371 0.690610 -0.924511 -0.259641 0.216770 -0.748169 -0.471361 -0.162290 0.399813 -0.349924 0.823487 0.343465 0.621234 -0.920091 0.026315 0.280453 -0.420013 0.835624 0.328952 0.694561 -0.519881 
0.357551 0.000000 -0.637842 -0.214334 -0.309073 -0.585276 -0.733654 -0.520770 -0.583019 -0.801559 0.203175 0.754485 0.627435 -0.696191 -0.881302 -0.042980 -0.357486 -0.273948 -0.245452 0.695492 -0.865781 0.821413 -0.518126 -0.145364 0.867251 -0.113721 0.684538 -0.964573 0.426229 -0.373113 -0.912484 -0.122930 -0.092370 -0.459589 -0.308888 0.511524 -0.809339 -0.562041 -0.229619 0.801078 -0.274306 -0.255414 -0.750477 0.740042 -0.118693 -0.872942 0.467944 0.741924 -0.476181 0.822940 -0.855680 0.578899 -0.438221 0.826652 -0.461470 0.076540 0.405547 0.025286 0.981955 -0.288542 0.481661 -0.719236 -0.206016 -0.506075 0.395046 -0.459701 -0.191412 0.938116 0.908881 -0.430174 0.070163 -0.765764 -0.198111 0.341049 0.009249 -0.550376 -0.174404 0.790587 -0.612548 0.904747 0.075972 0.857235 -0.443929 0.887981 0.294809 0.862208 -0.867822 0.515400 0.319781 0.552590 -0.617221 0.371013 -0.385302 0.229248 0.972685 -0.086900 -0.536237 -0.527375 0.415304 0.013846 0.716691 -0.577990 -0.280402 -0.718413 -0.366678 -0.761453 0.263862 0.733979 -0.016565 -0.408537 -0.284445 -0.666794 -0.812581 0.943356 0.991506 0.234111 0.706918 -0.825619 -0.179001 -0.476340 0.158718 -0.423369 0.437539 -0.281529 0.334761 0.328157 -0.663533 -0.005911 0.659997 0.565090 -0.531752 0.837947 -0.618499 0.894407 0.297970 -0.025968 -0.448431 -0.777169 0.115948 0.741754 0.664345 -0.349488 0.161381 0.332099 -0.407150 -0.977502 -0.870628 -0.651874 -0.046475 0.890053 -0.871085 -0.331906 -0.341056 -0.123827 0.837158 0.112487 0.571482 0.900192 -0.467234 -0.809153 0.563310 -0.455453 -0.791977 -0.765224 0.882105 -0.464845 -0.651098 -0.998118 0.636579 0.990238 0.927541 -0.819825 -0.799605 -0.967351 -0.265608 -0.081815 0.937092 -0.298581 -0.251150 0.917309 -0.795618 0.049818 -0.711890 -0.730280 0.182152 -0.575690 0.385540 -0.222225 -0.940533 0.455811 0.817280 0.025257 0.498504 0.359209 -0.770301 -0.455186 -0.303805 -0.052933 0.355013 0.709009 
0.311007 -0.911452 0.000000 -0.781449 0.181691 -0.321197 -0.354176 -0.630231 -0.299294 -0.230504 -0.082735 -0.525983 -0.188109 0.443838 -0.419241 -0.189211 -0.065917 0.134911 -0.556468 -0.560422 0.980069 0.019907 0.569999 -0.018560 0.055283 -0.863545 0.393072 0.364523 0.544632 -0.376931 0.924561 -0.897616 -0.227743 0.329263 -0.082434 0.538414 -0.874629 0.114198 -0.670774 0.293515 -0.890199 0.423795 0.728629 0.068016 -0.855125 -0.086762 -0.212134 0.671117 -0.539428 -0.160278 0.209978 -0.895937 -0.005260 -0.409821 0.135406 -0.228460 0.273790 -0.419005 -0.209314 0.056261 -0.424225 0.043218 0.366215 0.981337 -0.663678 -0.428720 0.506921 -0.174502 -0.853092 0.084262 0.186190 -0.707435 0.147569 0.185677 0.671773 0.484702 0.389647 0.799558 0.176089 -0.467848 0.872530 0.617271 0.465344 -0.960506 0.777903 0.215013 -0.275041 -0.609276 -0.096758 -0.216201 0.317267 0.304941 -0.856001 -0.808413 0.999160 0.880698 -0.114380 -0.382402 0.973801 0.675536 -0.261361 -0.686685 0.887969 0.091715 -0.543394 -0.825933 0.544476 -0.990030 0.561705 0.574988 -0.168390 -0.127033 0.948598 -0.906226 -0.941756 -0.086968 0.326357 -0.914125 0.293829 0.390174 -0.345922 0.083461 0.725523 -0.127715 -0.513338 0.319980 -0.093059 -0.047374 -0.210316 -0.773360 0.136134 0.004108 -0.952569 0.165954 -0.805019 0.051733 -0.529750 0.496094 -0.154508 -0.812118 0.724521 -0.982616 -0.820035 -0.324320 -0.851770 0.299066 0.410172 -0.247018 0.366428 0.547313 0.687961 0.557864 0.018430 -0.241516 0.834730 -0.694985 -0.609675 -0.810265 -0.120096 -0.461744 -0.530124 0.211143 0.687799 -0.154897 0.653380 -0.647085 0.443303 0.590718 0.195078 0.678952 -0.850528 -0.823342 0.087671 -0.511952 -0.376254 0.298765 -0.662427 0.587899 0.821689 0.133508 -0.134830 -0.087081 0.426788 -0.976837 0.303658 -0.417946 -0.413184 -0.376490 0.338544 -0.098605 0.738815 -0.731565 0.583705 0.327296 0.866668 0.091405 0.248846 0.351383 -0.304176 -0.291614 
0.848724 0.504896 -0.220554 0.000000 -0.856014 0.968598 -0.775500 0.173858 0.026061 0.013470 0.388664 0.280331 -0.474874 0.800120 -0.382022 -0.649477 0.245333 -0.690574 -0.484097 -0.218936 0.343796 0.186737 0.494889 -0.405755 0.479567 0.083390 -0.469876 0.790524 0.329749 0.098830 -0.960902 0.126507 0.195004 -0.570215 0.403107 -0.988818 0.940115 0.509285 -0.451984 -0.492429 -0.259886 0.088564 0.488568 -0.633080 -0.181976 -0.465974 0.372227 0.011594 0.855800 -0.571138 0.879315 0.651493 -0.350987 0.965011 0.946195 0.706468 -0.385219 -0.370098 -0.235522 -0.424809 0.243273 0.694036 0.665044 -0.599368 0.419610 0.382577 -0.031587 -0.885613 -0.496235 -0.217320 -0.503805 0.548956 0.308235 0.512134 -0.570852 -0.301441 -0.324702 0.738261 -0.043254 -0.972023 -0.795366 0.278108 0.156608 0.112300 -0.580275 -0.682471 -0.286536 0.196220 -0.130869 0.490621 -0.129373 -0.375354 -0.573490 -0.640969 -0.772724 0.834687 0.582047 0.455607 -0.607508 -0.384683 0.631933 0.896080 0.417676 -0.119286 -0.839682 -0.537576 0.965005 0.836517 -0.664095 0.561796 0.106953 -0.435587 -0.918846 0.960022 -0.916106 -0.994787 0.614388 0.021496 -0.718461 0.820052 0.620830 0.292412 0.564170 0.008727 0.666575 -0.878694 -0.214983 0.780702 -0.734232 -0.243375 -0.398776 -0.226058 0.648088 0.408655 0.257770 0.341621 -0.372691 0.183606 -0.125799 -0.302789 -0.971475 0.417601 0.616176 0.073736 -0.711904 -0.971411 -0.497101 -0.775666 -0.625024 -0.780810 0.926936 -0.988814 0.995353 0.902993 0.610380 0.660202 0.011275 -0.497499 0.529470 0.794091 0.292057 0.596485 -0.870111 0.052348 -0.190787 -0.561182 0.211535 -0.724542 0.621366 -0.701190 -0.906142 0.478981 0.230789 0.871706 0.761623 0.595971 0.489186 -0.242652 -0.246757 0.760668 0.543070 -0.614208 -0.987166 0.708151 -0.103005 0.787217 0.762136 -0.773876 -0.528752 -0.742657 0.171016 0.258897 -0.724247 -0.421819 0.493855 0.213460 -0.377266 -0.704930 0.234448 0.375213 
0.206670 -0.490770 -0.366393 0.027017 0.000000 0.081084 0.783100 -0.437149 0.832467 -0.733800 -0.982899 0.418058 0.297711 -0.376428 -0.621802 -0.618828 -0.650184 0.351960 -0.616477 0.865608 0.273486 0.480394 -0.016603 0.955680 0.111797 0.979252 0.285302 -0.935942 -0.376955 0.517668 0.452779 -0.148444 -0.891096 -0.651107 0.850317 -0.724226 -0.062432 0.709086 -0.390145 0.836792 -0.033388 0.840285 0.663990 -0.325531 0.800186 0.731388 0.442416 -0.319110 0.711794 -0.885834 -0.209252 -0.900922 0.196818 -0.081231 0.744393 -0.980881 0.334146 -0.015877 -0.842744 -0.004203 -0.632865 -0.564925 -0.698730 0.439143 0.673864 -0.372223 0.044334 -0.886766 0.126771 0.634527 0.503185 -0.966668 -0.784184 0.221071 -0.454352 -0.299347 0.875944 -0.015083 0.503172 0.809029 -0.657192 0.572537 0.632867 0.591629 -0.494337 -0.313784 0.240386 0.174037 -0.955590 -0.597004 0.159643 -0.875191 0.668976 -0.524244 -0.967155 -0.967310 0.414393 0.710446 0.461116 -0.023219 -0.236960 -0.594828 0.722907 -0.110392 0.635628 0.996677 -0.856343 -0.564786 -0.359397 -0.389830 0.127089 -0.013191 0.302665 0.889864 -0.049264 0.013858 0.916075 0.478701 -0.479214 -0.147652 0.411462 -0.557222 0.772505 -0.508494 -0.261330 -0.172320 -0.185519 -0.015300 0.860576 -0.297556 0.980120 0.876237 0.908627 -0.706627 -0.281883 0.396503 0.031403 -0.201749 -0.793508 -0.481390 -0.717536 0.365695 0.234024 -0.766427 0.659612 0.096674 0.801725 0.595206 -0.366032 0.100358 0.720061 0.069177 0.651725 -0.463629 -0.215618 0.109730 0.226995 -0.898396 0.657751 0.825351 -0.319940 0.768052 0.655450 0.146934 -0.487362 0.907024 0.349876 0.362539 -0.799583 -0.597164 -0.528229 0.049925 -0.911668 -0.408251 0.518363 0.127655 -0.494510 0.769814 0.262088 0.917985 0.576551 0.085182 -0.353632 0.513112 -0.121389 -0.178322 0.941488 -0.414462 0.136339 -0.554199 -0.421007 0.140022 -0.657605 -0.359012 0.086193 0.648342 0.677923 -0.141873 -0.466332 0.356973 
-0.353920 -0.327575 0.441267 0.373847 -0.751608 0.000000 -0.278474 -0.309997 -0.119774 0.962963 0.520048 0.439327 -0.228960 -0.134095 0.272118 -0.518159 -0.697765 0.667088 -0.248573 0.240927 -0.741724 -0.151061 -0.876215 -0.541930 -0.221847 -0.586351 -0.803222 0.244738 -0.684535 -0.978044 0.008834 0.471335 -0.264748 0.372315 -0.498876 -0.609285 -0.255007 0.089723 -0.022348 0.399274 0.590459 -0.163161 -0.242980 0.236123 0.512294 0.127242 0.561794 0.076493 -0.380659 0.265240 -0.106292 -0.446194 0.816060 -0.483258 -0.119982 -0.540073 0.995301 0.030745 0.723892 0.447043 -0.545928 0.593891 -0.471847 -0.328386 0.819362 -0.987945 -0.393363 0.745812 0.854546 0.350994 -0.850183 0.976232 -0.465181 -0.300046 -0.868995 0.804704 0.663418 0.059853 -0.057170 -0.850875 -0.658151 0.457401 -0.459019 -0.726407 -0.725278 0.257471 -0.678916 -0.548407 0.925472 0.401073 0.842084 0.900087 -0.233255 -0.311048 0.222356 -0.857721 0.280900 -0.905619 -0.735544 -0.288206 0.114925 -0.450087 -0.607206 0.685881 -0.402809 -0.016566 -0.417553 0.184023 0.875874 0.822467 -0.804501 0.750523 0.038713 0.654764 0.624921 -0.945218 -0.270733 -0.208942 0.304552 0.610468 0.130667 0.120138 -0.835933 0.468156 0.299260 -0.342261 -0.378753 0.306083 0.336855 -0.481341 0.110149 -0.723982 0.030478 0.236925 -0.008428 0.344383 0.052158 0.612204 -0.695336 -0.517739 0.365768 -0.532979 0.222868 -0.255508 -0.326942 -0.916624 0.301257 -0.769015 -0.836688 -0.206978 -0.673225 -0.896979 0.469292 -0.611130 0.738311 0.786826 0.188863 0.216316 -0.371600 0.515343 -0.638480 -0.934190 -0.932870 -0.751140 -0.405851 0.866474 0.829875 -0.282834 0.411833 -0.325554 0.420936 0.673250 -0.680287 0.412797 -0.122997 0.789915 0.102735 0.672628 0.851584 0.570417 -0.999278 -0.859439 -0.584596 0.688791 0.513345 -0.216171 0.810281 0.396367 -0.254335 -0.602003 0.138513 -0.004319 -0.585826 0.021573 0.571590 0.719823 0.068509 -0.571743 0.718982 -0.072754 
-0.781156 -0.891954 0.928777 -0.050488 -0.552791 -0.765101 0.000000 0.943085 0.433209 0.943239 -0.989677 0.495345 -0.735553 -0.437314 0.056986 -0.242685 -0.809520 0.404474 -0.013227 -0.310594 -0.148139 0.228899 -0.893179 0.340886 -0.725222 -0.801251 -0.629136 0.103694 0.776838 0.316717 -0.936577 0.956079 0.826243 0.667682 -0.263049 0.937139 0.487969 -0.703442 -0.747811 -0.457360 -0.842822 0.686336 -0.746351 0.086197 0.713097 -0.978418 -0.263438 0.404859 0.473095 -0.685612 0.919579 -0.632066 0.872309 0.897413 0.817715 -0.658935 -0.712500 -0.987394 0.861616 -0.821273 0.861044 -0.439302 0.653212 0.534514 -0.418812 -0.975490 0.944170 0.672484 0.443128 -0.342355 0.041291 -0.016436 -0.243169 -0.935373 -0.808671 0.671319 0.851535 -0.256658 0.350347 0.281322 0.186762 0.912676 -0.655548 0.202876 -0.255268 -0.289209 -0.730192 -0.334548 -0.744854 -0.760165 -0.097322 0.302904 0.914559 0.995213 0.539586 0.829117 0.965005 0.844437 0.452147 -0.765618 0.260887 0.724857 0.667851 0.569173 0.094987 0.453176 0.523599 0.125598 0.930907 -0.243017 -0.392194 0.395586 0.620766 -0.788097 0.457139 -0.862056 -0.570639 -0.723491 0.279753 -0.199012 -0.797043 0.094835 -0.099989 -0.522876 0.023760 -0.667030 -0.767809 -0.571713 -0.781383 -0.700359 -0.937387 -0.667532 0.789213 0.303967 0.775508 -0.041576 -0.774366 -0.772314 -0.284134 0.551516 -0.676959 0.347983 0.553467 0.117328 -0.066006 0.642688 -0.340382 -0.804784 -0.005984 -0.578182 0.497779 0.172644 -0.364824 0.407939 0.237375 -0.442583 -0.497365 0.784387 -0.801464 -0.213723 -0.044805 0.960798 0.135194 0.209947 0.583313 -0.266608 -0.876749 0.472928 0.505097 -0.832550 -0.673678 -0.509845 -0.967991 0.979864 0.581986 -0.560349 0.209138 0.977232 0.341008 -0.684543 0.887780 0.924994 0.373692 0.637390 0.610797 -0.335166 0.857814 -0.711713 0.232142 -0.397356 -0.360343 -0.283824 -0.233055 -0.947243 -0.310149 -0.667820 -0.057798 0.584090 0.798577 -0.323979 
0.885694 -0.137673 0.138241 -0.587206 0.831571 0.213055 0.813840 0.000000 0.208612 0.137771 -0.487660 -0.093275 0.330880 -0.900232 -0.203470 0.283785 -0.428211 -0.943553 -0.294734 0.400874 -0.511625 -0.883661 0.307710 -0.313679 0.002384 0.065509 -0.995772 0.059097 -0.755595 0.720182 0.105692 0.362653 -0.891530 0.052510 0.538111 0.034788 0.675278 -0.596543 -0.098293 -0.012101 0.610640 -0.971542 -0.698424 -0.409337 0.266002 0.696584 -0.513931 0.360847 0.756151 0.624080 0.910311 -0.410639 0.381940 -0.740471 0.906568 0.696563 -0.862032 -0.176894 0.942630 0.783512 0.489125 0.722671 -0.068500 0.714652 -0.838970 -0.574062 -0.267435 -0.778291 -0.734034 -0.914820 0.622521 0.717472 0.549195 0.314726 -0.400285 0.416897 0.791393 0.945009 0.762845 -0.869232 0.811565 -0.020698 0.134784 -0.692879 0.780321 0.861638 -0.458505 -0.099400 -0.621408 0.004127 -0.638497 0.777393 -0.363439 -0.318473 -0.580512 -0.671759 -0.254059 0.028969 0.889287 0.243299 -0.881665 -0.145309 -0.212431 -0.322138 -0.174414 0.621740 -0.408789 -0.524474 -0.841974 0.936856 -0.269415 -0.052569 0.467408 -0.278451 0.067641 0.841580 0.430970 -0.693787 -0.475933 0.989699 -0.137273 0.852436 0.892015 0.103850 -0.590669 0.630212 -0.019192 -0.568247 -0.520246 0.217514 -0.241850 -0.768966 -0.014371 0.468423 0.777978 -0.527618 0.322927 -0.569422 -0.283864 -0.897372 -0.137776 0.398893 0.191682 -0.406444 0.890436 -0.442537 0.281124 0.848174 -0.740066 -0.285101 0.312300 0.831062 -0.336831 0.883334 0.196801 -0.364249 0.074899 0.819458 0.628075 0.055284 -0.844840 0.768386 0.261243 0.718447 0.936767 0.237017 -0.460983 0.258931 -0.152327 -0.166412 -0.891621 0.530500 0.121375 -0.043430 0.066823 -0.906737 0.470823 -0.872706 0.431421 0.897823 -0.295283 -0.825351 0.325293 -0.796205 0.178590 -0.430243 0.900152 0.861060 -0.171358 -0.019073 -0.561675 -0.072896 0.843650 -0.769126 -0.708035 0.055575 0.049395 0.187277 -0.439311 0.495745 
-0.005783 0.802105 0.983856 -0.332646 -0.786345 -0.094550 0.899542 0.597606 0.000000 -0.037503 -0.304968 0.407221 0.168566 -0.919545 -0.796562 0.175452 0.824739 -0.606184 -0.136131 0.046857 -0.473354 0.335904 -0.465322 -0.671483 0.391971 -0.141553 0.921544 0.390313 -0.004382 0.348144 -0.740550 -0.429346 -0.014646 -0.156899 0.997487 0.771807 -0.235839 0.255405 0.588690 0.110802 0.245473 -0.342585 0.167724 0.933776 -0.030125 -0.314367 0.440379 -0.550444 0.683275 -0.201895 0.745835 -0.751209 0.435534 0.012317 -0.982022 -0.848364 -0.449994 0.956502 -0.064048 -0.459435 0.279793 0.476482 0.229451 0.390194 -0.007103 0.617385 0.391132 -0.246204 0.045904 -0.498925 0.562466 -0.636051 -0.110314 -0.048509 0.708073 0.577688 -0.800806 0.861763 -0.343914 -0.167498 0.869386 -0.234029 0.675845 0.922028 0.527327 0.781648 -0.843212 0.132409 -0.594746 0.099706 -0.245778 -0.787302 -0.189416 0.490528 0.297354 -0.364602 0.133432 0.592211 -0.708323 -0.778867 -0.420794 -0.287507 -0.129602 -0.220011 0.277312 0.778134 0.101870 0.125912 0.195518 0.070160 -0.826481 -0.668272 0.354959 -0.198474 0.241396 -0.859772 -0.181546 0.754978 0.923230 0.728485 -0.351882 -0.076143 0.258826 0.084376 0.106843 -0.281922 -0.261522 0.597252 0.013972 0.820701 -0.485177 -0.368004 0.948453 0.646359 -0.649637 -0.449693 0.009003 -0.688006 0.690836 0.880059 -0.846993 0.587206 -0.828738 -0.596376 0.715287 -0.177264 0.723969 -0.249115 -0.876574 -0.581852 0.805531 0.562298 0.543967 0.456938 -0.246992 0.809838 0.952238 0.263095 -0.160262 0.479033 -0.889856 0.194506 -0.935586 -0.392506 -0.849552 -0.426394 -0.407768 0.642526 0.928637 -0.389805 0.539257 -0.707116 -0.498647 -0.759588 -0.395473 -0.719553 0.473744 0.210150 -0.013297 0.519020 -0.835129 -0.013403 0.731493 0.197135 -0.757782 -0.041338 -0.774356 -0.598021 -0.937593 -0.117959 -0.538521 -0.925640 0.774546 -0.199069 0.251239 0.573646 -0.729590 -0.213518 -0.603378 -0.979924 
0.418681 0.763257 0.058482 0.904723 -0.324018 0.223959 0.079264 0.197039 -0.373160 0.000000 0.296113 0.775932 -0.902550 0.839071 0.268064 -0.641397 0.039069 0.637789 -0.682177 0.655441 -0.004381 0.361042 0.033725 0.808225 -0.159229 -0.156492 -0.157773 0.301335 0.533214 -0.264118 0.962582 0.122225 0.243654 -0.911695 -0.857438 -0.961450 0.915793 -0.260182 -0.873010 -0.681452 0.839282 -0.185009 0.547265 -0.117701 -0.205123 0.495353 -0.603397 0.709776 -0.791544 0.523442 -0.501949 -0.250706 0.382162 0.999015 0.450970 -0.546860 0.922902 -0.794255 0.955613 0.983407 0.124033 0.621158 -0.194662 0.308289 -0.579898 -0.345898 0.494408 -0.488297 -0.803458 0.287789 0.862082 -0.984104 0.171334 -0.381762 -0.277682 0.990714 0.931193 0.562295 0.494348 0.507361 -0.784734 0.968002 -0.792047 0.061854 -0.423129 0.476728 0.370931 0.241546 -0.338757 0.507695 0.830153 0.386425 0.645466 0.343300 -0.158458 0.803694 -0.315969 -0.486902 0.640275 -0.898584 -0.507389 0.313070 -0.224342 -0.518300 0.929296 0.672799 -0.271051 0.438228 -0.702573 -0.138437 -0.709762 -0.966355 0.466496 0.396985 0.133887 0.239560 0.284455 0.827188 0.548012 0.432117 0.584298 0.297652 0.642646 0.957984 0.832509 -0.023119 -0.562509 -0.085055 0.481590 0.085333 0.186072 -0.685409 0.339296 0.541388 -0.893369 -0.844743 0.396568 -0.880387 -0.661534 -0.407088 0.067553 -0.629778 -0.673201 -0.494360 -0.700735 0.749065 -0.464303 0.464588 0.325244 0.379553 -0.855106 0.239644 -0.297141 -0.053316 -0.077026 -0.569874 0.121803 -0.853173 0.726621 0.326081 0.437324 0.109184 -0.946997 -0.178280 -0.344873 -0.272788 -0.747962 0.999430 -0.573231 -0.285532 -0.941320 -0.758669 -0.950337 -0.314635 -0.068643 0.320597 0.277788 0.780299 0.491810 -0.145146 0.526705 0.325259 0.621090 0.664112 -0.268902 0.563230 0.209165 -0.558617 -0.678929 -0.755305 -0.407496 -0.781224 -0.032804 0.665399 -0.638304 0.017478 -0.245299 -0.737506 0.739503 0.833461 
-0.026756 0.311904 0.166611 0.238129 0.238483 0.180763 0.087940 0.007291 0.541056 -0.475198 0.000000 -0.647549 0.635936 0.176324 -0.517395 0.149549 -0.529088 -0.376766 -0.304215 -0.945288 0.549583 0.837175 0.403127 -0.641217 -0.940563 -0.035935 0.034975 -0.168347 0.593415 -0.471852 -0.413897 -0.362512 -0.731695 0.395295 -0.269024 0.506476 0.341517 -0.126079 0.983702 -0.919762 -0.443744 -0.012276 -0.322667 0.928538 -0.061972 0.438518 0.170954 -0.768533 -0.741999 -0.777306 -0.178164 -0.403933 -0.901328 -0.628058 0.232147 -0.298352 -0.407323 0.123502 -0.308886 0.558310 -0.476442 0.446575 -0.419130 -0.316376 0.663710 0.977301 -0.497199 -0.426044 -0.524561 -0.297523 -0.460983 0.252763 0.195896 0.416594 -0.307925 0.709917 -0.418463 0.885412 -0.878574 -0.192305 -0.067179 0.927657 -0.868680 0.097130 0.461894 -0.953119 0.921541 0.338080 0.112420 -0.561776 0.228469 -0.117888 0.651744 -0.132668 0.254367 -0.852405 -0.376226 0.762540 0.003823 0.248082 -0.488793 0.854462 0.948633 -0.317214 0.592180 0.769580 0.335286 -0.851838 -0.837808 0.967990 -0.987331 -0.069036 -0.287128 0.238636 0.762823 0.771929 -0.196021 -0.524720 -0.973765 -0.070714 -0.498372 -0.134016 -0.405774 0.160392 -0.290686 0.433874 0.120843 -0.983727 0.505293 0.465560 0.665623 -0.871019 0.784103 0.421382 0.172697 0.511370 0.589473 -0.724384 -0.725714 0.925932 0.141134 0.031499 -0.593211 -0.094986 -0.430730 0.726778 0.950466 0.477671 0.219454 0.367140 0.528373 0.363242 -0.989811 0.242086 0.746014 0.256794 -0.067896 0.873060 -0.473019 -0.022802 0.761598 0.178388 0.158962 -0.320223 0.016804 0.431948 -0.243275 -0.726750 -0.492999 0.169121 0.422839 0.650371 0.782188 0.239117 0.841718 0.758344 -0.512500 0.412360 0.531329 0.052720 0.059430 0.831807 0.177894 -0.142687 -0.135164 0.294603 -0.605186 0.630519 -0.866546 -0.034667 -0.644273 -0.295132 -0.275755 -0.609463 0.749606 0.632067 -0.847312 -0.765718 0.585684 -0.412544 
0.371056 0.343036 -0.601112 -0.884821 0.811677 -0.151588 0.252423 0.481378 0.522128 -0.601189 -0.187708 0.000000 -0.810067 -0.791996 0.930362 0.588297 -0.489457 -0.306629 0.487416 0.000068 -0.857154 -0.194486 -0.732826 -0.614486 0.335843 0.515184 0.690083 0.220281 0.257662 0.530130 -0.109135 -0.224269 0.714666 -0.607560 0.735257 -0.529268 0.588810 0.127641 -0.729599 -0.362266 -0.610580 -0.014678 -0.685727 0.989143 0.520187 0.774747 -0.826827 -0.483530 -0.693916 -0.643446 -0.400728 0.968745 -0.301600 -0.994386 -0.642803 0.402871 -0.953124 0.841211 0.234223 0.579393 -0.146730 -0.094456 0.485023 -0.214196 -0.000122 -0.043942 -0.540289 -0.641550 -0.527103 0.975510 -0.600061 0.780985 0.011678 0.271355 0.668603 -0.786059 0.700854 -0.740756 0.113043 -0.094070 0.967808 -0.044295 -0.466009 -0.214767 0.414407 0.945425 -0.248333 0.270975 0.274600 -0.791292 0.753517 0.357165 0.869887 0.191965 0.363164 -0.298412 0.597758 0.513722 0.120136 -0.881060 0.021270 -0.521028 -0.918922 -0.314643 -0.212585 -0.922402 -0.815298 -0.712927 -0.163220 0.757499 -0.717877 0.645386 -0.998406 -0.207630 0.360889 -0.542685 -0.905480 -0.408874 0.054680 0.998739 -0.186968 -0.366265 0.186547 -0.697033 0.959653 0.893752 -0.703714 0.674483 0.038053 -0.440617 0.554973 -0.565651 -0.893560 -0.059284 -0.382232 -0.165583 -0.947519 -0.960045 0.523035 0.640915 -0.136090 0.734278 -0.983270 0.173773 0.610365 0.406048 0.453143 -0.024732 0.325085 -0.289176 -0.188560 0.869618 -0.322926 0.580865 0.592110 -0.407647 0.684269 0.506808 -0.073351 -0.814327 -0.390220 -0.426118 0.239890 -0.168137 0.126802 -0.843563 0.232125 -0.670152 0.758514 0.337065 -0.942053 0.917930 -0.351547 -0.454963 -0.566369 -0.971432 -0.857004 0.327608 0.108629 -0.265777 -0.907244 -0.045957 -0.398368 0.630124 0.485861 -0.127311 0.284740 -0.378785 -0.242937 0.961017 -0.194692 -0.196605 -0.345687 0.043557 0.057097 -0.368317 -0.298486 -0.654493 -0.058532 0.246163 
-0.736768 -0.867785 -0.866677 -0.245694 0.615199 -0.354705 0.475476 -0.681705 0.589877 0.057540 -0.918474 -0.793330 0.000000 0.495652 0.415544 0.051783 0.323105 0.431943 -0.331338 -0.789943 -0.564084 -0.562163 -0.274117 0.921606 -0.563833 -0.346677 -0.601440 -0.406121 0.322124 -0.060659 0.509255 -0.952668 0.509112 0.645231 0.405024 -0.762678 -0.328067 0.185747 -0.157371 -0.936040 -0.031731 0.693895 0.285875 0.702263 0.935294 -0.505627 -0.075157 0.835498 0.222704 0.981940 -0.535401 -0.483252 -0.022309 -0.948477 0.949722 -0.015609 -0.340985 -0.942311 0.570883 0.825558 -0.852702 0.638956 0.925289 -0.671622 0.054156 0.205751 0.055751 -0.990594 -0.905870 -0.950404 0.562140 -0.108922 -0.644034 -0.271846 -0.908080 -0.092693 0.105624 -0.779731 -0.936314 -0.633949 -0.787045 0.132212 0.078687 0.489007 0.734445 -0.191276 -0.772609 0.764216 0.171411 0.902952 -0.086683 -0.884437 -0.732351 -0.630149 -0.917298 0.975202 0.216269 0.831613 0.916207 0.694878 0.813179 -0.899777 -0.547981 0.075862 -0.992621 -0.978610 0.502816 0.832328 0.932439 -0.499021 0.955822 0.497572 0.695514 -0.499491 -0.947027 -0.677837 -0.401890 -0.560504 -0.385883 0.466666 -0.738094 0.856615 -0.876197 -0.248254 -0.397885 0.747759 -0.415672 -0.197445 -0.460027 0.324134 -0.271530 0.389668 -0.848521 0.904271 0.081069 0.534362 -0.971132 0.184117 0.447707 0.608762 -0.542802 -0.874282 -0.054859 -0.020172 0.971553 0.886789 0.260822 -0.357107 0.094791 -0.844199 -0.451150 -0.486328 0.291926 0.395585 0.599259 -0.253939 0.053714 0.767382 -0.615007 -0.423335 -0.998853 0.280746 0.496434 -0.441243 0.036302 0.120934 0.530989 0.328811 0.319618 -0.187844 0.900110 0.145025 -0.563596 -0.350001 -0.462245 -0.947446 0.267693 -0.881064 -0.040981 -0.772595 0.996346 -0.417793 0.156808 -0.523770 0.991825 -0.402885 0.713168 0.210204 0.906599 -0.792437 -0.496769 0.805803 -0.872956 0.221977 0.772319 0.359753 0.366593 -0.664418 -0.870409 -0.956419 
-0.533670 0.611088 0.548206 -0.297745 -0.192455 -0.596943 -0.820831 0.289395 -0.136913 0.911142 -0.444671 0.407974 0.822458 0.000000 -0.940617 -0.954688 0.550950 -0.188330 0.737128 0.916614 -0.470698 0.975902 -0.018538 0.431621 0.262535 0.430595 -0.985233 -0.809990 0.494503 -0.888023 0.991160 0.419228 -0.028143 0.998465 -0.805919 0.925004 0.548705 0.085408 -0.542988 -0.000916 0.598778 -0.346389 0.243849 0.375443 0.065884 -0.681285 -0.359598 0.241669 -0.263079 0.433715 -0.548715 -0.260187 -0.958897 -0.177139 0.826476 0.588443 -0.040398 -0.975812 -0.472741 0.633950 0.797846 -0.610064 0.656658 0.448175 0.484343 0.354953 -0.305821 0.069094 -0.742371 0.973244 -0.680450 -0.320970 -0.535471 0.339662 0.694354 0.011065 -0.030119 -0.208116 0.197391 -0.452590 -0.682534 0.646120 -0.664251 -0.073499 0.702930 0.140323 0.408733 -0.424160 -0.853326 0.142041 -0.713076 -0.664277 -0.510383 0.000520 0.740027 -0.358931 -0.556887 0.406974 0.017475 -0.299301 -0.348244 -0.937220 0.147550 -0.120694 -0.506482 -0.441240 0.071583 -0.906717 0.799781 -0.076395 0.034324 0.880168 0.977240 0.467169 -0.295398 -0.754426 0.365121 0.581559 0.259473 0.970010 0.964069 -0.884123 0.537769 0.285631 0.594562 0.801036 -0.981402 -0.431498 -0.180126 0.617923 -0.573059 0.602492 0.080959 0.672485 0.452144 -0.810823 0.498623 0.348516 -0.495311 -0.694390 -0.613273 0.723472 -0.599006 0.509558 0.144740 0.648983 -0.541159 0.739747 0.932255 0.417499 0.908822 0.579102 0.964638 0.667710 0.198989 0.401999 0.403770 0.165746 -0.301183 0.017164 0.483141 0.143761 0.196264 0.616002 -0.858256 -0.713476 0.606736 -0.596023 0.634182 0.695002 0.894618 -0.161945 0.198667 0.995747 -0.480297 -0.345088 0.112588 0.261508 -0.829836 0.946040 0.100334 0.320556 -0.408757 0.022448 -0.718263 0.147981 -0.880896 0.787516 -0.226733 -0.706581 0.491785 -0.566988 0.639924 -0.801608 -0.621020 0.510016 -0.169045 0.858416 -0.599074 -0.634892 
-0.626020 0.482719 -0.949950 0.186620 0.530439 -0.916730 0.521275 -0.934324 0.822464 -0.841082 -0.057099 0.339437 0.924048 0.470854 0.000000 -0.360454 -0.157269 0.777371 -0.726849 -0.144128 -0.358043 0.368015 -0.767961 0.878111 0.419577 -0.160965 0.669026 0.324761 0.252103 -0.901959 0.780704 -0.699640 -0.846351 -0.623252 -0.992475 -0.520723 0.208258 0.194974 0.923670 0.117423 -0.473793 0.953384 -0.482424 -0.104645 -0.773671 0.916603 -0.651409 -0.231626 -0.945427 0.200075 0.667023 0.662983 0.754579 0.203697 -0.459508 -0.946991 -0.071810 -0.904803 0.982015 0.728432 0.764928 0.147540 -0.290573 0.334289 0.389636 0.611819 0.847627 0.071683 0.773166 0.596779 0.072383 0.533240 0.171075 -0.747170 0.311771 -0.057111 0.143309 0.587077 -0.998520 -0.132760 0.695761 -0.339838 0.335069 -0.493933 0.474027 0.964043 0.669977 0.303827 0.428004 -0.538054 0.920452 0.037916 -0.751462 0.181495 0.384497 0.233888 0.955129 0.852576 -0.747145 0.740719 -0.734018 -0.640193 0.283507 0.908228 0.582324 -0.882913 0.877564 -0.787520 0.154308 -0.544110 -0.863437 0.218667 -0.867939 0.553297 -0.729858 -0.724105 -0.039894 -0.506475 -0.329151 -0.044215 0.872707 -0.413029 0.215980 -0.032210 0.653161 -0.322285 -0.649707 0.376258 -0.237672 -0.553599 -0.332754 -0.598760 0.647547 -0.669762 -0.682645 0.791192 -0.435419 -0.090912 0.035163 0.977384 0.891981 -0.468649 -0.579871 0.100894 -0.276343 -0.491663 0.615274 0.903838 0.804111 0.698947 -0.799709 -0.708546 -0.529639 0.357314 -0.626958 0.711974 0.146994 0.525182 0.739903 -0.455960 0.682007 0.494524 -0.533473 -0.083962 0.851534 -0.259867 0.419854 0.483140 0.140208 0.478109 -0.428815 0.914584 -0.589802 -0.800735 0.045721 0.429600 0.294434 0.544043 -0.271888 0.383634 -0.262520 -0.176035 -0.616670 -0.371300 -0.440312 -0.324813 0.875335 -0.246041 0.781924 -0.203568 0.627052 0.863568 -0.011787 -0.106561 -0.964545 0.894058 0.429711 0.151255 0.147355 0.602014 
0.044733 -0.169910 0.328840 0.812616 -0.359494 -0.009435 -0.565865 -0.489776 0.327064 0.972220 0.098799 0.506890 -0.706163 -0.478116 0.303514 0.000000 -0.834572 -0.651406 -0.187877 0.350808 0.033826 0.521261 0.831840 0.736430 -0.816898 0.394260 0.319918 0.861479 0.871811 0.519535 -0.175283 0.023026 0.998080 0.733507 0.059346 -0.577503 -0.094693 0.495735 -0.181720 -0.167372 0.976213 -0.787612 0.606158 -0.297059 -0.663431 -0.281229 -0.620706 -0.201268 -0.719481 -0.311479 0.979474 0.022393 0.357896 -0.835607 -0.044338 0.808643 0.863028 0.913146 -0.748802 0.884104 -0.866414 0.179570 0.026749 -0.437376 -0.980431 -0.102655 0.682602 0.494887 -0.441615 -0.226578 -0.100197 -0.004781 -0.348958 -0.941242 0.540399 0.480966 -0.409625 -0.567845 0.223266 0.437290 -0.472034 0.530704 -0.451927 0.461730 0.301093 0.467024 -0.721948 0.217436 0.446185 -0.974544 0.843048 -0.887792 0.874901 0.468141 0.045732 0.622630 0.542440 0.793709 -0.125034 0.554778 0.146851 0.132380 0.902707 -0.204747 0.825273 0.370427 -0.239264 0.683255 -0.531542 0.374198 -0.847380 0.091977 -0.143722 0.457050 -0.367599 -0.231868 0.991889 0.671175 0.433061 0.462201 0.216104 0.052156 0.586126 -0.979246 -0.194672 0.143529 0.286586 0.650859 0.991831 -0.304179 -0.332248 -0.095472 -0.597937 0.467961 -0.983511 0.132502 0.968853 -0.491752 -0.880878 -0.912046 -0.754122 -0.529473 -0.846951 -0.698278 0.045169 -0.852880 -0.362269 -0.659557 0.821844 0.736167 0.756617 0.462815 0.528159 0.767965 -0.818928 0.269176 0.048411 -0.356729 0.461089 -0.482736 0.653346 0.794284 -0.460939 0.994030 0.665962 0.819080 0.280670 -0.773958 0.081910 0.669192 -0.885780 0.687478 0.435767 -0.056576 -0.866416 0.148922 0.924770 0.612182 0.945652 -0.419156 -0.761571 0.268169 -0.875846 -0.351303 -0.357577 0.201084 -0.383471 0.998462 -0.843986 -0.874797 -0.715582 -0.788833 0.077169 0.981601 -0.226236 -0.344372 0.146131 0.029197 0.711779 0.877481 
-0.175041 0.082924 -0.300472 -0.028025 0.980680 0.295836 0.107378 0.702218 0.174697 0.125970 -0.822789 -0.618922 -0.228497 -0.347624 -0.519383 0.728104 0.000000 -0.764214 -0.142876 0.683824 -0.976312 -0.877182 -0.798301 0.955343 0.441969 0.165556 0.498427 -0.941314 -0.667633 -0.902785 0.886473 0.949692 -0.530897 -0.788957 0.003275 -0.953803 -0.569354 0.874470 -0.778576 0.472330 0.453018 -0.126112 0.428969 -0.318186 0.251018 0.866373 -0.864455 -0.898589 -0.584369 0.507386 -0.358291 0.199002 0.630749 0.990242 0.998103 -0.875127 -0.262020 0.222239 -0.836196 0.054209 -0.908648 0.345706 0.285245 0.108458 0.859113 -0.892172 -0.728329 0.971868 0.192253 -0.798746 -0.531613 -0.815378 -0.065026 -0.894575 0.870826 -0.031968 0.711916 -0.825354 0.270383 0.334673 0.851650 -0.319569 -0.994785 0.643408 -0.236386 -0.933927 -0.505258 0.121746 0.193075 -0.994393 -0.760903 -0.502352 0.962564 -0.189280 0.776610 0.485271 -0.049989 -0.163033 -0.097741 -0.729996 0.953529 -0.036997 0.192638 -0.334698 0.736824 -0.200407 -0.244266 0.615355 0.269508 -0.378009 0.805249 -0.186289 -0.956686 0.972539 -0.545335 0.550676 -0.782393 0.318564 0.103696 0.819163 -0.326925 -0.622994 -0.664007 0.031463 0.798962 0.154236 0.237527 0.122932 0.115739 -0.768576 0.546381 -0.982230 -0.347690 0.374172 0.704843 0.288966 0.653373 -0.751598 -0.112320 0.237245 -0.618784 0.105264 -0.831502 0.942853 0.528242 0.163845 -0.265186 -0.987978 -0.948660 -0.123333 -0.854275 0.206833 0.248788 -0.615956 -0.374791 0.890563 -0.307582 0.474351 0.424016 0.429422 -0.710407 0.188739 0.131919 -0.830716 0.149882 -0.928115 -0.832530 -0.332965 -0.143776 -0.445894 -0.145292 0.070900 -0.391132 0.249460 0.673816 0.830739 0.235989 0.267222 -0.802664 -0.380931 -0.300350 0.009617 -0.366950 0.675101 0.421125 -0.150919 -0.487388 0.474069 -0.320564 0.276116 0.675119 0.719263 0.649583 -0.458244 0.292195 0.914578 -0.692640 0.792729 -0.608213 -0.233133 
-0.267066 -0.579666 -0.438145 0.101254 -0.217293 -0.040687 0.166032 0.497571 0.675040 -0.602345 0.389450 -0.506582 -0.120983 0.642265 0.545401 0.556567 0.222508 0.000000 -0.300001 -0.117632 0.958517 -0.203230 0.307118 -0.271309 0.106849 -0.186816 0.185679 0.713127 -0.469625 -0.991830 0.306855 -0.681828 0.512492 -0.543718 -0.261566 -0.132447 -0.043244 -0.797120 0.811123 0.545848 0.069756 0.394521 0.719621 0.670612 0.982157 -0.887702 0.385970 0.995049 -0.212290 0.038201 0.044036 0.119651 0.967197 -0.318878 0.621112 -0.971430 -0.817184 -0.408126 0.628509 -0.653905 -0.187540 0.018383 0.964639 0.693803 0.745974 -0.409856 -0.456690 0.411716 -0.291256 0.863915 -0.181893 0.917978 0.462379 -0.788072 0.875928 -0.275012 -0.129848 -0.354932 0.654626 0.307048 0.560370 0.145835 -0.949313 0.893986 -0.780074 -0.696960 0.187861 -0.618079 -0.049292 -0.443014 0.266155 -0.737588 -0.639315 -0.967903 0.450001 -0.833738 -0.634207 0.884519 0.106177 0.510404 0.364345 -0.448344 0.679052 0.826037 -0.798366 -0.140208 -0.480691 -0.978656 -0.264340 -0.764742 0.987547 -0.302252 0.045676 -0.319790 -0.711857 -0.176768 -0.939320 0.855117 -0.042529 -0.792127 0.728961 -0.360752 0.845516 0.584264 -0.281123 -0.839862 0.433197 0.737953 0.774140 0.967744 0.871487 -0.921952 0.757528 -0.222968 0.568957 0.459748 0.992112 0.429914 -0.439578 0.007871 0.280362 0.042199 -0.761293 0.950404 -0.552561 -0.888826 -0.495052 -0.340393 -0.984822 0.098737 -0.523014 -0.289856 0.395115 0.698054 0.193588 -0.366572 -0.977103 -0.172743 0.702597 0.544312 0.259455 0.658364 -0.870654 0.911947 -0.910484 -0.505763 -0.360238 -0.515581 0.625572 -0.014378 0.348757 -0.434803 0.267006 -0.437590 -0.580483 -0.169823 -0.209554 0.020703 -0.043152 0.737303 -0.153209 -0.985893 0.097321 -0.326446 -0.580226 0.143978 -0.159183 0.607033 0.405762 -0.354643 -0.477215 -0.557971 0.182882 -0.299106 0.927702 -0.112934 -0.087896 0.734226 0.138220 -0.942946 
-0.087051 0.928740 -0.669256 -0.193398 -0.433085 -0.853645 0.789885 -0.407951 -0.431124 0.093100 0.732009 0.872947 -0.384265 -0.339894 -0.591714 -0.935729 -0.797017 0.532721 0.000000 -0.560743 -0.405099 -0.501359 -0.340096 -0.001334 -0.425436 -0.300474 -0.066453 -0.869859 0.273704 0.135230 0.815082 -0.914908 -0.863096 -0.048549 0.035725 0.429384 0.657175 -0.853770 0.688254 -0.513277 -0.639504 -0.144126 -0.319788 -0.675276 0.630854 0.759956 0.585834 0.111538 0.623110 0.615497 0.652935 -0.123083 -0.661141 0.207587 0.912261 0.365224 0.327997 0.653822 0.786448 -0.176292 -0.940629 0.842280 0.197650 -0.101598 0.435406 -0.131059 -0.709910 0.544468 0.872977 0.124261 0.459429 -0.380299 0.315243 0.287001 -0.375188 0.210240 -0.491256 -0.538093 0.265510 0.429653 -0.827244 0.503855 0.291001 0.853339 0.073466 0.737610 -0.987571 -0.099585 0.278129 0.520127 -0.220517 -0.224270 0.698857 -0.313892 0.412507 0.997465 0.398990 -0.169915 0.240277 0.331006 -0.789320 -0.094327 0.640077 -0.231929 -0.029813 0.939084 -0.819330 -0.477921 -0.415672 -0.193782 -0.900342 -0.052575 0.376731 -0.275265 -0.375622 0.921151 -0.210243 0.445080 0.465143 -0.336911 -0.465431 -0.499456 -0.363054 0.145763 -0.155169 0.077740 0.574304 0.325313 -0.457010 -0.973671 -0.495579 0.796870 0.993129 -0.480223 0.894594 -0.564846 0.633333 0.433760 0.210912 0.797530 0.093676 0.404666 -0.785460 0.767068 0.110051 -0.366393 0.036409 -0.073570 -0.490513 -0.056991 0.153151 0.017223 -0.529359 -0.944282 -0.546602 -0.744953 -0.419309 0.680818 0.508231 -0.161508 -0.462515 0.505840 -0.347253 -0.281782 0.082178 -0.833635 -0.905033 -0.893493 -0.942727 -0.412148 -0.976686 0.832202 0.810648 0.554311 0.308132 0.777607 -0.764687 -0.086578 0.881161 -0.333497 0.908117 0.717864 -0.867107 0.532868 -0.091148 0.080874 -0.753151 -0.208268 -0.365103 -0.292108 0.534083 0.337226 -0.247590 0.747632 -0.551222 -0.387545 0.538127 0.297237 -0.336534 -0.127669 
0.275231 -0.195562 -0.812006 0.622619 0.350992 -0.883664 0.257575 -0.944750 -0.405310 -0.047236 0.097305 -0.593451 -0.123406 -0.087194 0.532916 0.719962 0.394161 0.671231 -0.625896 0.000000 0.565848 0.200044 0.144018 0.518753 0.673318 0.449981 0.837085 0.886424 0.124667 -0.718372 0.320399 0.940968 0.855098 -0.370940 -0.380793 0.018431 -0.237588 0.866700 0.618887 -0.367309 0.638888 -0.202585 -0.845347 0.259964 -0.782061 -0.096367 0.363146 -0.599602 0.497519 -0.201498 -0.571541 0.104575 -0.404057 -0.986038 -0.348686 -0.357526 -0.933993 0.383648 -0.034961 0.416693 -0.636322 -0.660064 0.299883 0.132489 0.744596 0.424466 0.004220 0.927074 -0.666543 -0.585998 -0.863384 -0.887875 -0.514044 0.456879 0.769202 -0.016282 0.340817 0.106912 0.866926 0.433475 -0.586292 0.184137 0.789015 0.971703 -0.594701 0.857971 -0.075636 0.789944 0.587266 0.177092 0.377081 -0.399915 0.620391 0.903787 -0.052407 -0.796588 -0.246170 0.621016 -0.576101 -0.536038 0.810243 -0.242640 -0.051661 -0.265349 0.272542 0.616281 -0.165471 0.922748 0.625188 -0.473121 0.262941 -0.749366 -0.588965 -0.731334 0.475163 0.072468 -0.032609 -0.055399 0.905701 0.113846 -0.591924 -0.461634 -0.675180 0.245387 0.216424 -0.569829 0.881853 -0.692415 0.581881 -0.325008 -0.405182 0.111605 -0.256138 -0.910166 0.846284 -0.506892 0.672791 -0.399013 -0.204608 -0.849591 0.931906 0.545907 -0.949052 -0.712979 0.958865 -0.362348 0.010711 0.025488 0.369505 0.264603 -0.821890 0.486565 -0.300509 -0.649783 -0.907361 -0.013381 -0.893703 -0.458191 -0.818902 0.713479 -0.551356 -0.642588 0.029078 0.713332 0.966354 -0.482853 0.689037 0.650990 -0.818336 0.232019 -0.451887 -0.871260 0.740625 -0.313786 0.194195 -0.161988 -0.538201 0.449918 -0.232592 0.827692 -0.988349 0.816197 -0.174542 0.475218 0.985132 -0.884982 0.103643 -0.067815 0.232469 -0.885369 -0.400758 0.454913 -0.283543 0.493791 -0.858565 0.102666 -0.499543 0.173978 0.050101 0.053164 
-0.474120 -0.539851 0.722532 -0.413030 0.202534 -0.014130 0.523218 -0.283212 0.056179 0.204376 0.939677 -0.843182 0.636021 -0.401155 -0.209022 0.972911 -0.281109 -0.603694 -0.282508 -0.115845 0.000000 -0.999479 -0.248100 0.183893 0.696387 0.179224 0.225374 -0.138215 -0.981561 0.900556 -0.359802 0.808429 -0.733830 0.513396 0.646013 -0.460826 0.901082 0.478799 -0.832061 -0.441684 0.618782 -0.133157 0.030825 0.079779 0.842688 -0.946279 -0.105354 -0.679034 -0.525191 -0.889058 -0.391207 0.991762 0.551262 -0.944537 -0.840211 0.572170 0.456093 -0.450756 0.139649 -0.922801 0.484673 -0.108752 0.210134 -0.282039 -0.225550 -0.810683 0.858367 0.570094 -0.423405 -0.175814 -0.897986 -0.454339 -0.082682 0.368071 0.162657 -0.226576 -0.062771 -0.991078 0.955692 0.323689 0.233328 -0.456205 0.557730 -0.236769 0.618679 0.138718 -0.565099 0.379796 -0.775642 -0.214437 -0.045368 -0.506651 0.714407 -0.969838 -0.060173 0.665036 -0.739022 -0.740682 -0.638792 -0.184541 0.415803 0.396044 0.318548 -0.165813 -0.816109 -0.351800 -0.698937 0.963405 -0.047077 0.770558 0.768846 -0.013504 -0.961633 -0.161801 0.609236 -0.576278 0.492571 0.647446 -0.381686 -0.995348 -0.805774 -0.647976 -0.530889 -0.659336 0.532122 -0.618457 -0.405869 0.565456 -0.376532 -0.374736 -0.189541 0.380961 0.812712 -0.756778 0.824973 -0.685564 -0.281161 0.533011 0.310233 0.083485 -0.860931 0.329010 -0.328114 -0.607049 -0.672234 -0.243968 -0.372795 0.438279 0.158218 -0.823270 -0.702795 0.127054 -0.596130 0.842053 0.383046 -0.145691 -0.621053 -0.039959 0.407506 0.961215 -0.861144 0.745801 0.674038 0.563448 -0.131334 0.669590 -0.208745 -0.374719 0.093977 -0.531126 -0.628887 0.302901 0.850915 -0.670080 -0.042894 -0.913756 0.501831 0.268334 -0.114672 0.706505 0.222515 -0.197773 0.028957 0.675236 0.684793 -0.687227 -0.226417 0.603626 -0.855884 -0.844668 -0.328266 0.834511 -0.375178 0.376206 0.899079 0.828369 0.400208 0.291689 0.421261 0.131986 
0.296187 0.012921 -0.828983 -0.717335 -0.243985 -0.648455 -0.585695 0.227560 0.601783 0.169569 -0.053406 0.398398 -0.131005 0.205040 0.101129 -0.331226 -0.923416 0.146086 -0.737662 0.113146 -0.354409 0.000000 -0.549568 -0.582067 -0.797385 0.352300 -0.899737 0.116806 -0.841338 -0.365343 -0.319104 0.817496 -0.336467 0.996229 -0.372241 -0.248874 -0.818461 0.128980 -0.234015 0.911403 -0.053624 0.736314 -0.766681 0.385099 0.366000 -0.645887 0.569954 -0.782555 -0.400520 0.456113 -0.115506 0.692342 0.186781 -0.778276 -0.491370 -0.454161 0.921141 -0.376538 -0.469842 -0.636743 0.265086 -0.703692 -0.944247 0.032940 -0.371741 0.154800 -0.276913 -0.077839 -0.233760 -0.808685 0.438124 -0.448401 -0.272838 0.411016 -0.051283 0.078846 -0.828709 -0.108652 -0.112832 -0.364795 0.882890 0.739586 0.221999 -0.855459 0.296957 0.955717 0.735856 -0.460597 0.742483 0.908277 -0.582978 -0.114732 -0.303614 -0.833650 0.845713 -0.108970 0.538972 0.498450 -0.547663 -0.579965 0.533710 0.070808 0.076199 0.678257 -0.538850 -0.459196 0.296818 0.613926 0.261964 0.826106 0.367309 -0.638967 0.887207 -0.710707 -0.846465 -0.545612 -0.093225 -0.833592 -0.189046 0.709517 0.854569 0.736521 0.701261 0.094404 0.640317 -0.185931 -0.939476 0.222499 -0.460629 0.200804 0.914884 0.461462 -0.207663 -0.189649 0.563146 0.793735 0.306246 -0.923869 0.533736 0.506549 -0.425908 -0.239825 -0.734105 -0.110486 -0.931524 -0.130021 0.733940 -0.667202 0.328983 -0.777300 -0.086862 0.115904 -0.009640 -0.015619 -0.505261 0.079515 0.415170 -0.240711 0.362985 0.685634 -0.541206 -0.042029 -0.377402 -0.998135 0.347145 0.459757 -0.868485 -0.619004 0.402421 -0.515980 -0.069605 0.143226 -0.802589 0.888741 -0.924980 -0.138963 0.443952 -0.495974 0.169923 -0.102830 -0.264370 0.729988 0.907944 -0.181853 -0.406841 0.227363 -0.716926 0.622809 -0.445441 -0.520843 0.184109 0.313751 -0.792020 0.516503 0.870060 -0.898895 0.274395 -0.244098 -0.561705 -0.576460 
-0.560714 0.073233 0.825177 0.745985 -0.222571 -0.757420 0.047076 -0.793599 -0.016094 -0.488565 0.695644 -0.304946 0.774920 0.076928 0.929702 -0.496064 0.645800 -0.034769 -0.356025 0.285997 0.750596 -0.731717 0.000000 0.030508 0.754670 -0.257592 0.658868 -0.407015 -0.703973 0.330676 -0.328198 -0.017752 -0.358547 -0.103294 -0.059074 -0.856264 0.764883 -0.615343 -0.068010 0.949902 -0.990623 0.592585 -0.418019 0.350673 -0.243976 -0.499676 -0.052342 0.284735 -0.459209 0.074752 0.360726 0.716552 -0.912737 -0.370285 0.613080 0.043267 -0.818183 0.797315 0.478159 0.418828 -0.753734 0.000224 -0.239547 -0.065864 -0.976765 -0.491363 -0.333932 -0.395357 -0.767578 -0.686516 -0.266442 -0.083894 -0.004297 -0.224467 -0.615673 0.380527 -0.486286 0.997395 -0.788192 0.863002 0.468953 -0.307506 -0.251563 -0.013301 0.442243 0.779169 -0.501614 -0.626302 -0.249464 -0.747400 0.450977 -0.437228 -0.495762 -0.274902 -0.273339 -0.013131 -0.695685 -0.377858 -0.657709 -0.107658 0.598188 -0.248796 0.478948 -0.325728 -0.517333 -0.821628 0.902390 0.476469 0.007527 0.504674 0.048381 -0.865756 -0.756652 0.947108 0.048766 -0.386837 0.433582 -0.787808 -0.695223 -0.619155 -0.145282 0.250922 -0.758929 0.683081 0.544151 -0.457266 0.735193 0.387484 0.443553 0.794996 -0.494358 -0.675597 -0.751559 0.539992 -0.351189 -0.426389 -0.323541 0.252202 0.753115 -0.397086 0.180266 -0.268353 -0.204487 -0.817505 0.192446 0.445393 -0.276898 0.169146 0.835758 0.584073 0.518987 0.620077 -0.358836 -0.954985 -0.438549 -0.685178 0.209701 0.449910 -0.370962 -0.760403 -0.090446 -0.118135 0.500701 -0.723197 -0.763683 0.786824 0.143188 0.561785 -0.084261 -0.166827 0.131922 -0.780002 0.514749 -0.605627 -0.779675 -0.001267 0.711751 0.403219 0.898073 -0.088391 0.418834 -0.657078 0.491907 -0.513818 0.263265 0.698617 -0.345412 0.667078 -0.416104 0.543034 0.770749 -0.015785 0.708301 0.417727 0.741098 -0.364480 0.177914 0.208608 0.069994 0.395095 
0.364635 0.420738 -0.664508 -0.390023 0.877408 0.603341 0.349572 -0.735213 -0.727117 -0.657407 0.956442 0.913233 0.708562 0.798710 -0.088157 0.337935 -0.320438 0.390628 -0.708356 0.654003 -0.175074 -0.471575 0.247238 0.000000 -0.665103 -0.381166 -0.262935 0.849027 -0.408841 0.609506 -0.024384 0.185533 0.258887 -0.878458 -0.242396 0.046586 0.971261 -0.022912 0.923262 -0.732669 0.024832 -0.649710 0.320409 -0.891328 -0.553178 0.739904 -0.425766 0.154794 -0.380143 0.938736 -0.667960 -0.403925 -0.761737 -0.520069 -0.791326 0.185401 0.029124 -0.520451 0.778889 0.789401 -0.545747 -0.370933 -0.276076 -0.005964 -0.238377 -0.394535 -0.955476 -0.693396 0.095853 -0.992673 0.140564 0.450912 0.475736 -0.305309 0.679477 -0.024763 -0.185804 -0.812911 -0.592782 -0.893693 -0.302650 -0.636900 -0.386347 0.661366 -0.426511 -0.376053 -0.321966 0.723737 -0.146083 0.775651 0.371278 0.062643 0.837308 0.634237 -0.374725 0.002267 0.109073 -0.812052 -0.159345 -0.115573 -0.433826 0.688294 0.149492 0.506547 -0.463021 0.007984 0.185457 0.970589 0.686236 -0.434483 -0.351630 0.156310 -0.894573 0.908987 -0.653713 -0.956533 -0.447311 0.043433 -0.020334 0.241199 -0.175209 -0.745510 0.205969 -0.280256 -0.259696 -0.718231 0.695357 0.872007 -0.176250 -0.236507 -0.965996 0.497277 -0.266530 0.438222 -0.810984 -0.199878 0.645315 -0.187983 0.574723 -0.625664 0.471863 0.605502 0.670641 -0.538807 0.277234 -0.523469 0.052324 -0.595223 0.092078 -0.449094 0.071241 -0.658394 0.363897 0.016271 -0.534128 0.909721 -0.318385 0.908267 -0.764472 -0.476039 -0.791035 -0.930209 -0.026523 0.227499 -0.425678 -0.374334 0.568685 -0.108222 -0.879467 0.805140 -0.010177 0.951014 -0.314167 -0.206679 0.342601 0.092988 0.853023 0.754618 0.867561 -0.898166 0.518859 0.466981 0.543344 -0.023964 -0.759042 0.785672 0.785869 0.099632 0.514510 -0.636020 0.416338 -0.607669 0.901414 0.062365 0.172134 -0.936670 -0.617600 -0.002970 0.083127 -0.879675 
-0.702357 -0.511463 -0.152603 -0.791890 0.697133 0.717819 0.389607 0.126052 0.560193 -0.839455 -0.723222 0.799888 -0.286394 0.568001 0.395828 0.683512 -0.206894 0.735944 -0.992073 0.229974 -0.820277 -0.389524 -0.735839 0.760191 0.000000 0.524047 -0.336544 -0.289972 0.444580 0.061266 -0.298441 0.095649 -0.424614 -0.494915 -0.038924 -0.193614 -0.066586 0.886681 0.440581 0.847202 0.920166 -0.774581 -0.389693 0.424035 0.749176 -0.602535 -0.800218 0.741709 -0.092465 -0.053601 -0.873275 0.864342 -0.999008 -0.330820 -0.085016 -0.869995 -0.008920 0.087016 0.478021 0.104915 -0.690025 0.753085 -0.902951 0.103792 0.426042 0.485586 -0.760662 -0.453521 -0.330420 0.623262 -0.833342 0.025736 0.543793 -0.477638 0.343966 -0.961772 -0.501228 -0.140245 0.903233 0.629737 -0.004093 -0.785826 0.616152 -0.331482 0.787577 0.807427 0.433669 0.667849 0.544145 -0.562859 0.027355 -0.239523 0.335973 0.699429 -0.691700 0.598441 0.005681 -0.527115 0.772259 -0.636419 -0.289233 0.867752 0.306200 0.298534 -0.534742 0.584157 -0.068416 0.138535 0.356978 -0.275374 -0.214334 -0.303719 -0.613429 0.100387 -0.804080 -0.170229 0.966525 0.381692 -0.902049 -0.733823 0.633750 -0.565881 -0.762181 0.022810 -0.626624 0.322307 -0.989576 0.200398 0.086972 -0.261821 -0.425274 0.427657 -0.361186 -0.455438 -0.546010 -0.795618 0.046171 -0.008499 -0.842360 0.451190 -0.845222 0.350560 -0.145016 0.708509 -0.096314 -0.749609 -0.686711 0.450475 -0.870642 -0.880905 0.631693 0.855905 -0.808546 0.767659 0.037316 -0.837476 0.540083 -0.817533 -0.281425 0.095397 -0.667947 -0.179042 0.845067 -0.956741 0.061565 0.719200 -0.397616 -0.740449 -0.722336 -0.307674 0.919925 -0.822239 0.633959 0.952291 -0.843353 -0.227914 -0.550121 0.113006 -0.704464 0.072636 0.785416 0.492902 0.202853 -0.650453 -0.158283 -0.265331 0.585691 -0.293740 -0.885320 0.431826 -0.292109 0.521843 0.612125 -0.014314 -0.581174 0.200819 -0.839712 0.960347 0.552820 -0.756113 
0.012642 0.477982 -0.562768 -0.441807 0.551838 0.736994 0.665234 0.579938 -0.984713 -0.067388 -0.588496 -0.850759 -0.705973 0.717124 0.710128 -0.872101 0.603353 0.561072 -0.058026 0.751110 -0.096242 0.458265 0.066284 0.042270 0.438818 0.000000 -0.782086 -0.521245 -0.560296 -0.901333 -0.700843 0.930718 0.572151 0.146450 -0.611806 -0.629319 -0.956620 0.081692 0.990000 0.936938 -0.885697 0.091450 0.999582 -0.017827 0.380750 -0.736359 0.013206 -0.054115 0.487211 0.563087 -0.202969 0.705850 -0.772861 0.522136 -0.466670 0.683795 0.534211 0.486472 0.133638 0.058792 0.113406 0.020125 0.234039 -0.498437 0.776553 -0.465883 -0.100457 -0.389050 -0.765574 -0.997893 0.405696 0.536705 0.405867 -0.585492 -0.360206 0.025111 0.045203 -0.265089 0.651771 0.322561 -0.718648 -0.313235 -0.532653 -0.298329 -0.016145 0.645229 0.356328 0.809204 0.295619 0.464626 0.964878 0.699902 -0.743333 0.797626 -0.296362 -0.956935 0.785368 -0.314294 -0.341541 -0.272173 -0.415589 -0.812663 -0.426869 -0.381367 0.365512 -0.840879 -0.648011 0.884575 -0.953657 -0.118182 -0.279510 0.274704 0.941748 -0.044828 0.577290 0.520500 0.037949 -0.190452 -0.926775 -0.314798 -0.807355 0.776241 0.284971 -0.494965 -0.878646 0.590945 0.015974 0.479426 -0.287390 -0.159736 -0.684886 -0.885513 -0.818261 -0.515542 -0.722726 -0.862759 -0.396063 -0.638318 -0.205135 0.293855 0.824710 0.895151 0.802160 -0.101852 0.174840 0.538605 0.331162 -0.166249 -0.152329 -0.191347 0.028986 -0.828056 0.862055 0.560151 0.462855 -0.790884 -0.392165 0.888945 0.499855 -0.939796 0.844155 -0.280944 0.178549 0.875026 0.553774 -0.712181 0.373731 -0.701204 0.869273 -0.129388 -0.619537 -0.552480 0.472978 -0.656840 0.496880 -0.944567 0.663581 0.813326 -0.432545 0.213580 -0.368738 0.626867 -0.238085 0.510469 -0.540589 0.318973 0.975733 -0.847504 -0.006507 0.629143 0.002009 -0.227471 0.888765 -0.534742 0.598229 0.436527 0.716904 -0.990085 -0.359881 -0.525717 
0.282500 -0.014668 -0.524676 -0.226253 -0.633493 0.877162 0.457384 -0.741394 -0.609803 -0.965303 0.160712 -0.920842 -0.595850 -0.444281 0.962089 -0.172239 -0.819598 -0.988210 -0.853752 0.992669 -0.219469 -0.614892 -0.488594 0.194678 -0.038765 0.478246 0.000000 -0.118016 0.498835 -0.073581 -0.680084 -0.165295 -0.118963 0.593728 0.782616 -0.573693 -0.061296 -0.206125 -0.336851 0.549493 -0.679090 0.535128 -0.105129 -0.899821 0.705023 -0.679865 -0.498203 0.700898 0.001074 0.053829 0.712000 0.579213 0.831070 -0.200574 0.956226 -0.714540 0.734548 -0.447498 0.898892 -0.325157 -0.909996 -0.294415 -0.228296 -0.967587 -0.242515 0.043442 0.137461 0.306083 0.339297 0.558449 -0.140990 0.374859 0.253856 0.552191 0.669492 0.150175 -0.007364 0.236387 0.957312 -0.459831 -0.373044 0.253520 0.902898 -0.989048 -0.928334 -0.514790 -0.073060 0.085763 -0.581063 0.066109 -0.912513 -0.600793 0.473362 -0.209351 -0.568643 0.809542 -0.019338 0.987782 -0.351501 0.321131 -0.753146 -0.125262 0.724678 -0.342061 0.977382 0.866546 0.033540 -0.297169 -0.512035 0.230136 -0.109019 -0.279729 0.593508 -0.909208 0.947035 0.818539 -0.811755 0.832986 -0.002045 -0.377272 -0.813654 0.911496 -0.493923 0.639038 0.306768 -0.147410 0.483209 -0.707562 -0.002570 0.809140 -0.778394 -0.466041 -0.753487 0.142298 -0.391323 -0.971514 -0.229045 0.437969 0.939595 -0.220404 -0.331634 0.219088 0.209964 0.856609 -0.967046 0.861102 0.535535 0.737028 -0.777764 0.124320 -0.553932 0.062501 0.455791 0.474532 -0.540637 -0.480976 0.235332 -0.778697 0.446208 -0.575728 -0.254344 -0.751784 0.768324 -0.778975 -0.232051 -0.077817 0.130682 0.379958 -0.044443 -0.946358 0.566339 0.464487 0.628315 0.093252 -0.712275 0.800740 0.044909 0.777986 -0.384802 0.624485 -0.283503 -0.836256 -0.960824 -0.570544 0.869050 0.115035 -0.605631 -0.833599 -0.296627 0.591081 0.303810 0.131807 -0.717184 0.281428 -0.034977 0.139671 -0.547871 -0.066049 -0.080187 0.303354 
0.465237 -0.766769 0.908702 0.551493 0.943712 0.974467 -0.125289 0.262734 -0.228469 0.128845 -0.498841 -0.019881 -0.144182 0.726538 0.919087 -0.900077 0.406781 0.766886 -0.941153 0.048446 0.234287 -0.331302 -0.191225 0.076709 -0.755015 0.460976 -0.384732 0.000000 -0.186079 0.566463 0.549400 -0.231075 0.328664 -0.151731 -0.138282 -0.103690 -0.724433 0.460312 0.469814 0.165204 0.583179 -0.516971 -0.726201 0.741006 0.080764 -0.592927 0.677722 0.469387 0.986780 0.808516 0.725459 0.786298 -0.696821 0.525472 -0.385365 -0.829237 -0.987010 -0.684306 0.868021 0.834834 -0.938810 -0.582318 0.979193 -0.699694 0.244193 0.159615 0.646665 0.499347 0.524202 0.261686 0.151087 -0.678136 0.566663 -0.099896 -0.957837 -0.364745 -0.270750 -0.500929 0.892752 0.487107 0.811545 -0.359955 0.234743 -0.672386 -0.785597 0.467430 0.098686 0.610576 -0.049154 -0.136473 0.293850 0.729338 -0.024335 0.995703 0.787640 -0.126715 0.301960 -0.954532 -0.811689 -0.058330 -0.358977 0.672670 -0.435966 0.718347 -0.735588 0.979371 0.282560 0.981441 -0.921152 0.196735 0.520697 -0.639929 0.706783 0.909179 0.575901 -0.835953 0.133735 -0.310428 0.642322 -0.498890 -0.837972 0.210823 -0.697791 0.220797 0.940596 0.603034 -0.806847 -0.670007 -0.804856 0.785875 0.196538 -0.784598 -0.730920 -0.577729 0.116264 0.054059 0.568803 -0.124941 0.111427 0.749838 0.519753 -0.503354 0.133240 -0.630484 -0.549498 0.595191 -0.620217 0.016075 0.170407 0.030192 -0.562612 0.179917 -0.130663 -0.058545 0.038326 0.145730 -0.722721 -0.779581 -0.412451 -0.064953 0.328467 0.544054 -0.077058 0.885332 -0.223629 -0.539651 0.090938 0.398684 0.688364 -0.666551 -0.719938 -0.001090 -0.317359 0.147598 0.678378 -0.498312 0.862156 0.250052 0.628222 0.532705 -0.821079 0.121916 -0.956796 -0.878085 0.029280 0.116190 0.807412 0.177605 -0.985503 0.649213 -0.677875 0.948882 -0.146181 -0.869780 -0.396377 0.088494 -0.683728 0.584709 -0.791977 -0.751935 
0.233269 0.552992 0.136826 -0.359349 0.429278 0.871996 -0.360170 0.625472 0.308932 0.219177 -0.296609 0.897343 -0.359465 0.479275 -0.820222 0.528963 0.275902 -0.910407 0.786230 0.160905 0.322217 -0.493350 0.266708 0.569155 -0.215469 0.612196 -0.828322 0.392165 0.000000 -0.879866 0.083979 -0.558030 -0.810002 0.290939 -0.185893 -0.303271 0.929297 0.696012 -0.129972 -0.436386 -0.346281 0.049189 0.723185 0.567976 -0.020754 -0.809875 0.433016 -0.293278 0.873414 -0.529595 -0.911109 0.999326 -0.324928 0.926725 -0.524533 0.168804 -0.913415 0.240281 0.405356 0.819668 0.156233 -0.183670 -0.943174 0.082457 -0.137062 0.395480 0.837935 -0.833160 -0.924046 -0.444808 0.118213 0.811781 -0.389732 -0.223785 0.840300 0.922526 0.893763 -0.533600 -0.220154 -0.124664 0.778651 0.783646 0.731223 -0.331782 -0.255798 0.804446 0.319204 0.853637 -0.925782 0.385798 0.100310 -0.093991 0.297681 -0.880258 -0.498451 0.532950 -0.711077 0.928284 -0.333056 0.321395 -0.321527 0.094972 0.193528 0.625939 0.163429 0.754130 0.671114 -0.582160 -0.356601 0.604919 0.874343 -0.914377 0.073021 -0.728198 -0.829814 -0.684586 0.157784 -0.130657 0.042869 0.504985 -0.720505 0.465688 0.818282 0.860685 -0.460816 -0.942532 0.866881 -0.326512 0.305252 0.373720 -0.890696 0.076346 -0.845449 0.543469 0.087168 -0.966841 0.298913 -0.175645 -0.069145 -0.120815 -0.538974 -0.541746 0.880619 0.571322 0.213760 0.660834 0.641582 -0.929074 -0.940763 0.591479 0.982082 -0.147419 0.326666 0.273599 0.379776 0.889202 0.811323 -0.087686 0.260099 -0.509768 0.321967 -0.698818 0.962401 -0.928305 -0.029258 0.268241 0.328741 -0.844179 -0.120017 0.877489 -0.046892 -0.117333 -0.018926 -0.090765 0.511426 -0.466448 0.415924 0.433092 0.974046 0.787448 0.640228 0.304754 -0.001920 -0.263886 0.861429 0.039069 0.635801 -0.092775 0.731689 -0.501515 -0.961836 0.418091 0.858893 -0.590867 -0.697779 0.430231 0.891807 0.601456 0.670684 0.181266 
0.542970 -0.300195 0.616361 -0.812777 -0.349025 -0.062135 -0.301619 0.686721 -0.281519 0.508412 0.888600 0.707355 0.523216 -0.300540 0.831516 -0.705808 -0.511715 -0.389846 -0.139618 -0.557935 0.784495 -0.989331 0.308819 0.322707 -0.270356 0.126879 0.457868 -0.612160 -0.572335 0.000000 0.771651 -0.864560 -0.656877 -0.126929 0.704491 0.385771 -0.354089 0.822030 -0.147326 -0.106918 -0.964255 -0.237408 -0.121494 0.042822 -0.282379 0.051856 -0.452146 0.780410 0.345533 -0.630798 0.180898 0.360905 -0.262125 0.461149 0.530716 -0.255391 -0.361334 -0.938056 0.089137 0.128918 0.720523 -0.169413 0.676226 -0.665608 -0.879789 -0.620929 0.052076 -0.752496 0.797470 -0.928980 0.624964 -0.221701 -0.128370 0.480673 0.674648 0.810498 0.031606 -0.793271 -0.508318 0.703690 0.918718 0.890795 -0.412820 -0.271530 0.390185 -0.167027 0.774222 0.351978 -0.303000 -0.519826 -0.710939 -0.747222 -0.557676 -0.853071 0.436855 0.226621 0.823541 -0.746688 0.415257 -0.778965 -0.061248 0.602871 0.461234 -0.039563 -0.932253 -0.381075 -0.731956 0.008068 -0.406924 0.831013 0.837065 0.543644 -0.967378 -0.720274 0.361921 0.801504 0.880655 -0.831040 0.702338 0.194448 0.082956 0.242710 -0.779377 -0.987538 0.449592 0.284723 -0.654414 -0.740760 0.052779 -0.935039 0.806827 0.349689 -0.773737 -0.200502 0.170863 -0.312895 -0.830658 -0.864324 -0.691396 -0.297357 0.320352 0.151914 -0.784703 -0.499523 0.512907 0.425555 0.297247 -0.171507 -0.521868 0.969055 0.901120 -0.882037 -0.403978 0.333769 -0.342244 -0.098412 -0.010346 0.119496 0.366385 -0.167407 0.394072 -0.831370 -0.828917 0.388829 -0.956084 -0.903427 0.106651 0.483361 -0.144740 -0.638464 -0.672054 0.793806 -0.506478 -0.378332 -0.627676 0.648862 -0.570458 0.306660 0.028264 -0.975207 -0.308166 0.651679 0.766100 -0.164727 -0.566081 -0.118989 0.150098 0.694633 0.694224 -0.185374 0.415790 0.180631 -0.127533 0.553299 -0.702341 -0.237242 0.668418 0.107389 0.880456 -0.183716 
0.281578 0.475315 0.622142 0.348013 -0.953534 -0.054321 -0.975550 -0.068202 -0.266563 -0.127719 -0.571520 0.468063 0.736976 0.347546 -0.801958 -0.515951 0.406457 -0.676197 -0.842050 -0.341034 0.240537 0.710423 0.073867 -0.512976 0.411697 -0.603356 -0.600001 -0.210932 0.868018 0.770486 0.000000 -0.442504 0.830723 -0.042191 0.888080 -0.038237 -0.641220 -0.979037 -0.675702 -0.520789 -0.892395 -0.490324 -0.875212 0.314770 0.338540 -0.152826 -0.554981 0.434763 -0.944409 -0.684125 -0.082575 0.166304 -0.925913 0.185883 0.143441 0.805993 0.332098 -0.423022 0.263864 0.761778 -0.794342 -0.498433 0.840824 -0.277567 0.930448 0.045833 0.318980 -0.905055 0.736085 -0.626240 0.787952 -0.887430 0.958855 -0.527641 -0.067374 -0.358917 -0.321282 0.220549 0.760094 0.904271 0.076671 0.610125 0.378677 0.422742 -0.967481 -0.446301 -0.981876 -0.396253 0.180561 0.682421 -0.556615 0.974788 -0.741702 0.213366 0.049352 -0.535708 0.362896 -0.812708 0.812330 0.830248 -0.027859 -0.220203 -0.951160 -0.137928 -0.160800 -0.557308 -0.683121 0.778289 0.704795 -0.510357 0.435995 -0.234365 -0.967594 -0.346246 0.641598 -0.655479 -0.642765 -0.957668 0.473394 0.329666 0.701902 0.859293 0.132548 -0.267043 -0.194420 0.377939 0.017634 0.376801 0.893807 0.213020 0.221759 -0.888137 -0.916064 -0.287440 0.999681 -0.369484 0.080462 0.322970 0.152090 0.184825 0.357281 0.817886 0.210510 0.039069 0.636725 -0.571316 -0.106883 -0.380799 -0.095302 0.255275 0.410157 -0.484830 -0.540803 0.723993 0.145052 -0.107412 0.724595 0.260775 0.851443 0.204427 -0.188011 0.095609 0.894022 -0.174751 0.961726 -0.274099 -0.782275 0.299919 0.736294 0.884951 -0.624926 0.861898 -0.080560 0.034682 0.906143 -0.450477 0.829835 -0.957122 -0.357842 -0.257693 0.960170 -0.420856 0.672056 -0.763158 -0.391543 -0.671226 0.701593 -0.332361 0.014632 -0.079943 0.405968 -0.900067 0.565547 -0.857543 -0.731587 0.225022 -0.049534 -0.525248 0.155859 -0.473645 
-0.548126 -0.358937 -0.661588 0.694445 -0.470525 -0.120766 0.291654 -0.173214 0.784675 0.027124 -0.133799 -0.762802 -0.419210 0.341057 0.145381 -0.582089 0.824570 0.550981 0.340779 -0.519166 0.370026 -0.969879 -0.762246 0.936213 0.929945 -0.409416 0.943408 -0.137310 0.231461 0.157753 -0.644834 0.000000 0.273264 0.746527 0.883127 0.723724 -0.362342 0.123489 -0.514985 0.642197 -0.586996 0.354001 -0.311560 -0.387589 -0.209213 -0.246153 0.911250 -0.628766 0.331730 -0.608265 0.897592 -0.169195 0.337198 -0.708297 -0.355805 -0.014118 0.713790 0.661929 -0.954225 0.335088 -0.178092 0.813005 0.172425 -0.045299 0.658460 0.744927 -0.005522 -0.815034 -0.276330 -0.284953 0.791334 -0.048392 0.671396 0.147221 0.350320 -0.166142 -0.354737 -0.066015 0.481809 -0.231155 0.972213 -0.018096 -0.141514 -0.427255 -0.876486 0.892056 0.791021 0.690206 0.288712 0.379691 -0.539267 0.534232 0.828907 -0.561979 0.814059 -0.108721 0.717830 0.574278 -0.108299 -0.176625 -0.530942 0.452512 -0.639152 -0.221630 -0.940140 -0.926180 -0.302915 0.908127 0.884659 0.466234 -0.006506 0.660464 0.416238 -0.294972 0.406592 -0.400257 0.872893 0.709082 -0.466499 -0.445869 0.281088 0.249598 0.986821 -0.491353 -0.167089 -0.272790 -0.773320 0.816997 -0.734474 -0.311960 0.892831 -0.186433 0.625106 0.163682 -0.988998 -0.084386 -0.268943 -0.128746 0.164089 -0.158784 -0.688993 0.096632 0.097086 -0.278011 -0.535610 -0.005619 -0.445392 0.297795 -0.963252 0.630452 0.011779 -0.030463 0.000950 -0.032039 -0.476221 0.159952 0.315210 -0.259154 0.391804 -0.951564 -0.932062 0.833011 0.417651 -0.531845 -0.722646 0.483470 -0.318049 0.544364 -0.878643 0.651897 0.432268 -0.866325 -0.320162 -0.968491 0.569257 -0.502042 0.180154 -0.155134 0.665547 -0.148580 0.818642 0.919798 -0.957538 0.653069 0.129815 -0.193446 0.755634 -0.060764 0.742186 -0.080626 0.917046 0.783845 0.087092 -0.243604 -0.249694 -0.605487 -0.417067 0.363142 -0.664795 0.787744 
-0.393832 0.872860 0.153488 -0.334079 -0.867692 0.708223 -0.896586 -0.925816 -0.188658 -0.773340 0.475360 -0.622002 0.004516 -0.102728 -0.541880 0.618705 0.572095 -0.791618 -0.731093 0.516763 -0.761433 0.600615 0.541927 0.169238 0.389339 -0.375754 0.709075 -0.576835 -0.865606 -0.242744 0.200038 0.034308 0.000000 0.622038 0.597911 -0.907568 0.505951 -0.483450 0.653237 0.956027 -0.056618 0.415953 0.922976 0.450357 -0.853014 -0.613415 0.337212 -0.470611 0.446821 -0.280483 -0.081704 0.802930 0.836263 -0.919918 0.943360 -0.955150 0.795675 0.912794 -0.666320 -0.837511 -0.050526 0.814822 0.718541 0.521841 0.585249 0.284921 0.670149 -0.803734 -0.362405 -0.945499 -0.998392 0.022450 -0.691215 0.742577 0.491098 -0.117629 -0.983161 0.016367 -0.922021 -0.410526 0.288302 -0.502959 0.762159 -0.387003 -0.352809 0.339630 0.164337 0.008976 0.866251 -0.912350 0.134539 -0.806607 -0.638034 0.569764 0.024553 0.654202 -0.824762 0.224774 -0.226436 0.283371 0.617825 -0.214452 -0.291664 -0.000844 -0.185083 -0.689489 -0.245135 0.019442 0.766906 -0.613322 -0.096684 -0.969976 -0.394576 0.362815 -0.160894 -0.150131 0.746236 -0.016884 0.229946 0.701485 -0.137607 -0.754657 0.485229 -0.750762 -0.056583 -0.998290 -0.262809 0.975091 0.357459 -0.182298 0.118554 0.536645 -0.602310 0.979715 0.073400 -0.367583 0.035215 -0.149553 0.458400 0.327463 -0.323055 0.417296 -0.503271 -0.476546 0.689899 -0.864905 -0.464575 -0.110301 0.174261 0.799674 0.127579 0.216550 -0.451591 0.110365 0.910458 0.074687 -0.741133 -0.225565 0.925162 -0.805059 -0.620740 -0.782658 -0.135611 0.791557 -0.304226 0.875395 0.755781 0.408033 -0.188695 0.595839 0.266560 0.077818 -0.113417 -0.207597 0.909783 0.728549 0.718186 0.559478 -0.847892 -0.517687 -0.759854 -0.868212 -0.039326 -0.945469 -0.505644 -0.358409 0.219870 -0.645117 -0.483635 -0.447257 0.945876 -0.661059 -0.420310 -0.145798 -0.420899 -0.048174 0.340351 0.273076 -0.408267 0.263803 
-0.270442 0.686780 0.715623 -0.525076 -0.948509 0.403364 -0.668599 0.851472 0.691979 0.090039 -0.715240 0.962640 -0.906929 -0.756803 0.417313 -0.225873 -0.251183 0.364939 -0.469629 0.937388 0.679099 -0.376362 0.480699 -0.890613 -0.528447 0.396044 0.304257 -0.353814 -0.551428 0.153059 0.468087 -0.856069 0.049453 0.000000 -0.836415 0.373608 -0.762732 0.763574 -0.616096 -0.733486 0.295048 0.871626 -0.585107 0.099539 0.947764 -0.922753 -0.701902 -0.860279 -0.706309 -0.939227 0.404504 0.493389 0.393508 -0.304423 -0.430761 0.195633 0.006936 0.566875 -0.530399 -0.414194 0.644234 -0.366682 -0.822686 -0.887792 0.877938 -0.495197 -0.779403 0.578881 -0.743872 -0.250126 0.128277 -0.045712 -0.286143 0.793223 -0.298487 -0.671194 -0.760172 -0.215594 0.503850 0.206930 -0.125581 -0.638905 -0.082107 0.026765 -0.159164 0.924862 0.155339 0.777492 -0.695358 -0.880460 0.115439 0.182759 -0.376146 0.114107 -0.209392 0.753593 -0.362911 0.559760 -0.113643 0.005739 0.455595 -0.816910 0.190257 -0.344068 -0.746850 -0.302528 -0.591275 0.434566 -0.241940 -0.289630 0.193393 0.354320 -0.942655 0.798153 0.553023 0.661647 0.301649 -0.189026 -0.967457 -0.054763 -0.409411 -0.973194 -0.470640 -0.038226 -0.466441 0.522848 -0.497647 0.053958 0.865550 -0.693775 -0.274843 0.721627 0.385875 -0.591074 -0.186586 0.041184 0.173700 -0.619752 -0.177341 -0.568978 -0.817867 0.101778 0.581753 -0.473158 -0.371120 0.585190 -0.709748 -0.730422 -0.195343 0.875028 0.600764 -0.959301 -0.971914 -0.965812 -0.396234 0.501567 -0.163661 -0.648720 0.968599 -0.760692 -0.956647 -0.368669 -0.220480 0.384277 0.551112 0.533540 -0.787836 0.846778 -0.210518 -0.168737 0.045202 -0.297662 -0.808503 -0.506790 0.379503 0.309523 0.159214 -0.098022 0.548903 -0.586413 0.164495 0.673558 0.484678 -0.013145 -0.924246 0.192577 0.644462 -0.526110 -0.336213 -0.732874 0.587976 0.109080 -0.689569 0.407039 -0.892281 -0.559261 0.495559 0.860758 0.754791 -0.230202 
0.996735 0.129278 0.778102 -0.447541 0.173184 0.701900 0.830899 0.913453 0.396848 -0.177099 -0.501599 -0.366294 -0.301067 -0.027386 -0.274341 -0.844067 -0.233674 0.641338 0.970285 -0.427936 -0.328296 0.328160 -0.606996 0.223071 -0.847156 -0.146357 0.178771 0.599109 -0.768191 -0.986878 -0.464795 0.195512 -0.029423 -0.513297 0.000000 -0.990391 0.490681 0.871197 0.204709 0.544532 -0.056204 -0.612489 -0.109178 -0.951949 0.594200 0.720793 0.363291 -0.161468 0.201583 0.013315 -0.213243 0.016512 -0.486659 0.729162 -0.981169 -0.506808 0.074494 0.018844 0.708597 -0.610963 -0.455873 0.136178 0.741712 -0.042188 0.945150 -0.864685 -0.767210 -0.502275 0.262993 0.129598 0.156946 -0.208809 0.554180 0.095367 0.835689 -0.568641 0.844323 0.534593 0.897834 -0.110315 -0.061266 0.301478 0.941013 -0.400521 0.451166 0.752612 -0.850222 0.319897 0.512830 -0.873576 -0.186358 -0.121360 0.308134 0.804248 0.989944 -0.006061 0.126210 -0.793821 0.245187 0.857737 -0.011611 0.857833 -0.396530 -0.478054 -0.659820 0.397770 -0.681639 -0.308703 -0.366459 0.929729 -0.042965 -0.105493 0.979755 0.734712 0.312440 -0.826271 0.869294 0.224427 -0.059210 0.852926 -0.871858 0.684429 -0.796225 -0.151557 0.779702 0.445241 -0.836105 -0.424501 -0.593389 0.908235 0.697888 -0.595933 0.145751 -0.359672 0.995336 0.607235 -0.202634 0.335076 -0.377210 0.228599 0.061818 0.978045 -0.005594 -0.014691 -0.914648 -0.491161 -0.935488 -0.741612 -0.268521 0.960270 -0.748940 0.563585 0.179402 -0.798461 0.262633 0.076731 -0.379177 -0.831362 -0.705949 -0.889444 -0.885262 -0.592554 0.945485 0.770097 -0.979730 -0.316033 0.433075 0.688587 -0.921837 0.691706 -0.500158 -0.154137 -0.581249 0.956097 -0.872614 -0.021305 -0.081461 0.876915 0.305730 0.408130 -0.565068 0.899216 -0.875718 -0.200414 -0.353413 0.189361 0.597685 -0.712749 0.833356 0.208899 0.959096 -0.474803 -0.013011 -0.676450 0.897634 0.537839 -0.539021 0.676510 0.097113 0.178110 
-0.513318 0.672558 -0.315703 -0.027609 -0.021872 0.390685 0.247478 -0.635931 -0.097074 0.469037 -0.890057 0.820324 -0.822188 -0.515064 -0.680929 -0.365460 -0.281770 0.297137 -0.016746 0.550746 0.391030 0.042216 -0.479137 -0.849257 0.530515 0.365730 0.829391 -0.423807 -0.932318 0.529510 -0.528990 -0.741571 0.412013 0.697100 0.156246 0.000000 0.027157 0.421763 0.578627 0.980192 0.079322 -0.839504 0.454711 0.333697 0.441773 0.875444 -0.409255 -0.351501 0.320708 0.143813 -0.927949 -0.042429 0.888508 -0.846414 0.326136 -0.625155 -0.979174 -0.985451 -0.478976 -0.157503 0.848142 0.726614 0.203864 0.343225 0.576472 0.772543 0.128541 0.388474 -0.921515 0.100619 -0.893243 -0.737494 0.946026 -0.147386 0.886486 -0.828415 0.828472 0.133138 -0.348185 0.062912 -0.638503 0.683429 0.393877 -0.115972 0.866004 0.924789 0.921950 -0.788693 0.439496 0.610650 -0.804574 -0.471252 -0.325394 -0.892083 0.752827 0.761350 0.010689 -0.343980 0.733602 -0.351447 -0.777318 -0.389179 -0.925777 0.467974 -0.752915 -0.238108 0.124066 -0.824265 0.573005 0.501420 -0.631550 -0.459455 -0.057649 -0.906792 -0.449620 -0.768894 -0.799311 -0.026893 0.015459 -0.177337 -0.497930 -0.717827 -0.513107 0.207651 -0.012177 -0.659627 -0.343784 0.024152 -0.077649 0.946767 0.306888 -0.137410 0.544111 0.873705 0.358911 0.222121 -0.804324 -0.279526 -0.001442 -0.237569 -0.823016 -0.433964 0.361295 0.282019 -0.112691 0.010555 -0.609181 -0.511496 -0.711061 -0.802301 -0.276237 -0.720994 0.250614 0.074353 -0.355442 0.089808 -0.597557 0.853605 0.539364 -0.906644 0.032591 -0.244006 0.984676 -0.551052 0.472477 0.918199 0.172548 0.015775 -0.865032 -0.593473 -0.493280 -0.563061 0.625389 0.914727 -0.185479 0.660085 0.045542 -0.580672 0.651904 0.557756 0.210570 -0.944426 -0.972276 0.959141 0.289552 0.493530 0.761736 0.504118 0.717314 -0.109047 -0.758092 0.740821 0.982289 -0.666328 -0.980546 -0.035142 -0.628046 0.428730 -0.332190 0.887160 
0.497515 -0.261416 0.375153 -0.809771 0.170533 0.147992 -0.700216 -0.531107 -0.322265 -0.309635 -0.043772 0.324788 0.711934 -0.530754 -0.384195 0.830211 -0.640084 0.104782 -0.933094 -0.503148 -0.410713 -0.858618 -0.795269 -0.093053 0.064152 0.203165 0.602481 -0.099486 -0.062759 -0.784164 0.551735 -0.982803 0.025516 0.844017 -0.599302 -0.471206 0.000000 0.444064 -0.622904 0.845684 -0.592280 -0.445597 0.847383 -0.027910 0.912056 0.928118 0.877579 -0.535526 -0.591989 0.436054 0.753511 0.258177 -0.820057 -0.704150 -0.643704 -0.738430 -0.798031 -0.506584 -0.160803 -0.622001 0.025522 0.944696 -0.497195 -0.364341 0.519361 0.894838 -0.463343 0.589663 0.470121 -0.683652 -0.138497 0.282781 0.700328 0.415791 0.200103 -0.861516 0.499341 0.419188 -0.712356 -0.561126 -0.845606 -0.104129 -0.094258 -0.202497 0.628484 0.930076 -0.210206 -0.938124 0.958227 0.918531 -0.248534 0.886524 -0.189580 -0.268033 -0.826832 -0.572516 -0.278567 0.124040 0.747272 -0.594744 0.132451 0.108328 0.665366 0.802736 -0.411351 0.422590 0.470072 0.503407 0.768373 0.046754 -0.206175 0.817307 0.471501 0.520108 -0.536530 0.542921 0.867157 0.311081 0.336994 -0.136560 0.831477 0.630547 -0.389998 -0.698747 0.163796 0.911401 -0.078669 -0.184608 -0.703712 0.704677 -0.489160 0.684716 0.027182 0.850351 -0.149019 -0.561154 0.677846 0.559951 -0.902327 0.590970 0.431398 0.505221 -0.756888 0.989266 0.600075 -0.531903 0.309967 -0.376371 0.330495 0.636157 -0.105790 -0.017288 -0.564563 -0.618518 0.568298 -0.618587 -0.588533 0.517872 -0.122418 0.524572 0.486686 -0.270677 0.727874 -0.622207 0.567534 0.551458 0.358457 0.578670 -0.291283 0.405869 -0.562482 0.360892 -0.495241 0.476591 0.070589 0.391779 0.633733 -0.856380 0.818199 -0.535539 -0.802221 -0.932011 -0.316654 -0.001667 -0.013589 -0.385813 -0.356185 -0.402455 -0.058085 -0.227155 0.206391 0.815412 0.634395 0.268663 -0.583636 0.829066 0.104606 0.106160 0.225446 -0.926521 
-0.038125 -0.772251 0.770923 0.897660 0.965315 0.054968 -0.160792 -0.432681 -0.075383 -0.962560 0.249496 -0.724868 -0.857922 0.904104 -0.725842 0.769720 0.691273 0.231603 0.543543 -0.665497 0.999682 -0.347257 -0.352220 0.242085 0.718465 -0.756221 0.201370 0.424596 0.186306 -0.759138 -0.835451 0.574584 -0.964386 -0.439216 0.089492 0.086319 0.758706 0.000000 -0.420579 -0.677954 -0.375559 -0.022993 -0.447245 -0.840902 0.954441 -0.708912 -0.681604 0.289717 -0.724102 0.023875 -0.736577 0.343014 -0.962940 -0.139843 -0.333579 -0.464488 -0.642497 -0.439724 -0.444569 0.125220 0.580857 0.467968 -0.860042 -0.727352 -0.601584 -0.827271 0.055060 -0.611922 -0.578257 -0.759699 -0.266852 -0.983151 0.173943 -0.540195 0.947031 0.750058 0.232599 -0.713583 0.809300 -0.090600 -0.706535 -0.728896 -0.560195 0.795487 -0.256071 0.209412 -0.410047 0.345659 -0.508537 -0.980166 0.344914 0.976848 -0.112616 -0.744646 0.739098 0.026210 0.509722 0.892344 -0.379733 -0.180696 -0.958438 -0.473706 0.419043 0.862237 -0.384747 -0.446165 -0.697312 0.273333 -0.092259 -0.592170 -0.603411 0.475032 -0.135961 0.897409 0.745994 -0.071225 0.920327 -0.057203 0.582652 0.636743 -0.255819 0.444433 -0.419051 -0.991184 -0.831850 -0.907123 -0.022261 -0.146337 0.520705 -0.514927 -0.371664 -0.562615 0.135808 0.522363 -0.650141 -0.913817 -0.530420 -0.776696 0.076962 -0.493995 -0.579497 0.399305 -0.873654 0.492269 -0.435359 0.927956 0.150574 0.700649 -0.199244 -0.698614 0.402842 0.557211 -0.952042 -0.968366 0.675239 0.738294 0.505093 -0.908435 -0.064072 -0.859049 -0.039670 -0.731269 -0.446285 -0.704948 -0.063157 0.519281 -0.441311 0.879314 0.626637 -0.115002 -0.837492 0.273376 0.637722 0.200406 0.216201 -0.309863 0.129807 -0.341364 0.691438 0.998647 0.254693 0.618587 0.588424 -0.359401 -0.456057 -0.945674 0.054573 -0.794751 0.613501 -0.881899 -0.077684 0.362841 0.272514 0.149501 0.657768 -0.889878 -0.185981 0.223306 -0.900850 -0.584366 
0.561592 0.672429 -0.478536 -0.758438 0.936128 -0.490572 0.955885 -0.444991 -0.970855 0.846801 0.189598 0.569145 -0.388307 -0.268318 0.383743 -0.437348 -0.511537 0.589309 0.508666 -0.858410 0.709113 0.056193 0.436850 0.138136 -0.342692 0.379539 0.916865 -0.245351 0.386191 0.716441 -0.783255 -0.164727 -0.570135 -0.255563 0.746541 -0.886135 0.720795 0.393767 0.000000 0.046679 0.528708 -0.003071 0.382379 0.643583 0.705077 0.228369 0.199035 -0.812671 -0.568416 0.626197 0.487655 0.012835 -0.276267 0.788731 0.197414 -0.065451 -0.034306 -0.581012 0.923174 -0.209333 -0.261959 -0.750691 -0.869182 -0.348149 0.665464 0.455806 0.737185 -0.132467 -0.366363 0.533759 0.889791 0.716502 0.241593 0.445555 0.435596 -0.938088 -0.449254 -0.618604 -0.880801 0.370712 0.552430 0.694046 0.826972 0.917469 -0.106274 -0.146194 0.922555 -0.620048 0.856875 -0.506328 0.138832 -0.655027 0.966219 -0.763128 0.102160 0.995525 -0.203473 0.235261 0.037502 0.303449 0.074448 -0.755998 -0.058580 -0.560282 -0.653534 0.048605 0.906429 0.352628 0.622721 0.073951 0.897320 -0.741955 -0.035507 -0.763528 -0.620285 0.875475 0.116239 -0.378254 0.684462 -0.251729 -0.804560 -0.246823 -0.347781 0.846136 -0.995990 0.394650 0.884317 0.707435 -0.141777 -0.847714 0.476166 0.916395 -0.141891 -0.769760 0.636927 0.827739 -0.193190 -0.944528 -0.673807 -0.671379 0.136453 -0.631651 -0.163349 0.587419 0.747302 -0.087142 -0.589685 -0.841685 -0.204378 -0.979780 0.843556 -0.357692 0.277879 0.309697 -0.919782 -0.775504 0.100885 -0.432275 0.749446 -0.065166 0.758609 -0.050327 0.156118 -0.116642 -0.409165 -0.831229 -0.463945 0.477650 -0.139823 -0.006562 -0.289548 -0.429714 -0.202612 0.701679 -0.884138 0.293101 0.151298 0.860979 0.480612 -0.350778 0.466419 -0.888918 -0.050856 -0.737298 0.233179 -0.960988 0.677861 0.813494 0.395858 -0.819012 0.861072 0.032644 0.644913 -0.953347 -0.898557 -0.045539 0.621024 -0.443069 -0.656715 0.589510 
-0.107698 -0.074159 -0.397100 -0.063071 -0.041262 0.514835 0.832593 -0.606499 0.566372 -0.988106 0.907369 0.151908 -0.887447 0.672394 0.926237 -0.733377 0.128954 -0.667705 -0.123589 0.833052 -0.902096 0.469625 0.980748 -0.564363 0.744692 0.038921 0.145309 0.215358 -0.482729 0.770805 0.913409 -0.336264 0.415210 0.436661 0.958549 0.326270 -0.372288 0.962369 0.540175 0.000000 0.713398 0.088390 -0.436318 0.801659 -0.514197 -0.110577 -0.465274 0.146561 -0.752261 0.749144 0.867933 -0.646963 0.485610 -0.360391 0.915116 0.348178 -0.174391 -0.985752 0.474361 0.593644 -0.620558 0.279346 0.971698 -0.670977 0.890688 -0.205106 0.785758 0.237770 0.200862 -0.119749 -0.615446 0.197619 -0.613177 0.336346 0.971450 -0.834433 -0.318773 0.386803 -0.994122 -0.211654 0.730837 -0.820593 0.290204 -0.545765 -0.670574 -0.331833 0.888670 -0.117327 0.079013 -0.026884 0.156428 -0.918697 -0.534867 0.488350 -0.309627 0.100515 -0.644550 -0.948346 -0.856922 -0.287406 -0.438230 0.674460 -0.345298 0.575444 -0.504919 -0.166413 -0.898383 0.881852 -0.721623 -0.317144 -0.244070 -0.087474 -0.175725 0.588179 -0.480673 -0.676839 0.358922 0.398904 0.371234 -0.666509 -0.012262 -0.091210 -0.972915 0.209827 0.557519 0.229234 0.730443 0.555481 -0.032169 -0.666258 0.203772 0.789111 0.591730 -0.798707 0.137244 0.667072 -0.522981 0.262999 0.224469 0.658014 -0.761093 0.311079 0.299819 -0.941054 -0.293804 0.042421 0.965624 -0.754882 0.701869 0.303996 -0.736596 0.024136 -0.338581 -0.523090 0.425446 0.467191 0.084416 0.774433 -0.108593 0.872461 -0.546495 -0.940677 0.039294 0.420586 0.792344 0.931871 -0.049618 0.077573 -0.233156 -0.646974 0.313022 0.968305 0.306551 0.195469 -0.757510 0.526272 -0.953515 0.268908 -0.464900 0.431605 -0.016115 -0.840814 0.442876 -0.589287 -0.150218 -0.710893 0.014644 0.119849 0.302623 0.192597 0.986114 -0.375507 0.858522 -0.820015 0.008958 0.553400 0.996107 -0.432611 -0.886980 0.524418 
-0.104750 -0.536936 -0.283990 0.980711 0.810951 -0.338482 -0.866686 -0.390920 -0.199998 0.632936 -0.236372 -0.710562 -0.416785 -0.902358 0.067840 0.182563 0.334274 0.150994 -0.238417 0.930143 0.911860 -0.365437 0.093270 -0.412055 0.590294 -0.934932 0.597047 0.566425 -0.101128 0.347975 0.414283 0.849304 0.248944 0.008742 0.927068 -0.774954 -0.647439 0.491693 -0.109502 -0.405817 0.000000 -0.565770 -0.892821 0.349659 0.727003 0.740917 0.596149 -0.522111 0.881733 -0.708738 0.238446 -0.435375 0.644031 0.222696 0.850770 0.891270 -0.428452 -0.998520 -0.127376 -0.806240 -0.483377 -0.113640 0.049927 -0.882053 -0.669261 -0.271098 -0.340245 -0.503284 -0.688625 0.278916 -0.257926 -0.965850 0.963100 0.818230 -0.015336 0.251481 0.642544 -0.759685 -0.028930 -0.234392 0.575738 0.423816 -0.928952 -0.890677 0.388932 0.773810 -0.579962 0.573437 -0.243379 -0.471185 0.786326 -0.212353 0.977634 -0.904710 0.531229 0.370520 -0.672754 -0.976146 -0.081462 0.867304 0.777326 0.524794 0.212570 0.661049 0.242401 0.028798 0.000715 0.013375 0.794809 0.346700 0.990051 -0.216546 0.504544 -0.125691 -0.484848 -0.847894 -0.555738 -0.296580 -0.621289 0.003733 0.740222 0.914792 0.910667 -0.420383 0.615758 -0.960495 0.965642 -0.456525 -0.814572 -0.509911 -0.076267 0.176761 0.823521 0.911769 0.106182 0.604775 0.446995 0.640631 -0.917657 0.933386 -0.588497 -0.876226 -0.729935 -0.022594 0.262599 -0.496691 0.110161 -0.522109 0.916185 0.320605 0.413074 0.542505 -0.114590 0.081034 -0.058829 -0.746247 -0.165674 -0.480392 0.048769 -0.335371 -0.573923 0.072790 -0.611956 0.858198 -0.269672 -0.383682 -0.544551 -0.263754 -0.915365 -0.547604 0.417256 0.815600 -0.210248 0.358709 0.814113 0.802753 -0.128287 -0.118688 -0.796635 0.961379 -0.106184 -0.637395 -0.696496 -0.003614 -0.736093 0.492769 -0.033391 0.794266 -0.778205 0.715174 -0.062589 0.060032 0.962400 -0.941454 0.987258 0.851300 -0.203480 0.106862 0.028550 -0.157467 
-0.539617 0.664705 -0.302991 -0.374255 -0.108079 -0.488229 0.334778 0.617545 -0.922279 -0.743517 -0.292725 0.166461 -0.296879 0.359677 -0.916728 0.558309 -0.497510 0.346849 -0.508657 0.997469 0.454307 -0.460828 0.858694 0.070138 0.809514 -0.490798 -0.848576 -0.016110 -0.762816 -0.651528 -0.226646 0.756997 0.847395 0.161895 0.966494 -0.131608 0.060578 0.135515 -0.393802 -0.637914 0.580624 0.000000 0.554611 -0.647945 -0.011766 0.242151 -0.166856 -0.355206 0.044989 0.128285 0.092861 0.721934 -0.458942 0.560749 0.505511 0.131181 0.756380 0.482527 -0.170908 -0.453165 -0.351121 0.704177 -0.900817 -0.025375 -0.483428 -0.973038 0.148486 -0.391273 -0.122947 -0.375904 0.189422 -0.378501 0.534545 0.099184 0.984556 -0.561975 0.890116 0.175504 -0.309649 -0.263740 -0.676286 -0.331252 0.648638 -0.340170 0.763320 -0.876068 -0.066951 0.762124 -0.981681 0.879897 0.424829 0.092713 0.223209 -0.528563 0.449532 -0.722108 -0.464708 -0.343039 0.547908 0.690937 0.583343 0.247992 -0.004103 -0.965927 -0.331429 -0.321156 0.330741 0.767760 -0.255127 0.077141 0.509280 -0.531750 0.874434 0.610670 -0.473581 0.524885 -0.265107 0.339296 0.544832 0.983258 -0.378402 0.202626 -0.462802 -0.319492 0.292543 0.768029 0.260641 0.591673 0.246555 -0.157531 0.373817 0.747426 -0.012293 -0.606671 -0.314718 0.532096 0.942531 -0.886557 -0.359487 0.102968 0.579849 -0.486139 -0.539741 0.575284 0.790633 0.161668 -0.851099 -0.423135 0.362886 -0.977735 -0.793471 0.136424 0.875460 -0.150171 0.075438 -0.120706 -0.702219 -0.201322 0.382475 0.253483 0.291174 -0.245645 -0.551528 0.473599 -0.225870 -0.202159 0.317644 0.642109 -0.078186 -0.066925 -0.816019 -0.831825 -0.482026 0.584239 -0.687656 0.561270 -0.729659 0.615500 0.712760 -0.648231 -0.814058 0.129195 -0.614977 0.089245 -0.062956 -0.104282 -0.671826 0.616205 0.549251 -0.738972 0.096755 0.167614 -0.903856 0.897219 -0.444018 -0.610597 -0.297789 -0.933675 -0.277782 -0.689686 
0.452701 0.543567 -0.275477 0.053816 0.488369 0.018454 0.164594 0.330557 -0.334816 0.745670 0.481685 -0.327918 0.683391 -0.239965 0.901642 -0.097830 -0.232096 -0.831074 0.144725 0.390118 0.714960 0.338110 0.620492 0.608355 0.614775 0.531376 0.835263 0.259790 0.296762 -0.312716 0.187848 -0.844042 0.191689 -0.279876 0.119546 -0.793266 -0.428943 0.759937 0.267896 0.520433 0.912501 0.412537 0.000000 -0.483318 0.878931 0.198370 0.007329 -0.824930 -0.598980 0.939602 -0.116877 -0.349773 -0.633710 -0.766091 0.301626 -0.574929 -0.832715 0.558010 0.469884 -0.660136 -0.910199 0.285838 0.072099 -0.224331 -0.334960 0.333521 -0.516923 0.066939 -0.956468 0.635326 -0.071258 0.375096 0.231248 0.582276 0.316653 -0.018181 0.433758 0.170716 -0.780549 -0.695259 0.777588 0.922008 0.192687 0.488903 0.984421 -0.829931 -0.656284 -0.157183 0.220522 0.315134 0.454864 0.891683 0.515525 0.430161 -0.282837 0.357909 -0.620914 0.300266 0.573841 0.553447 -0.215997 -0.260403 -0.587984 -0.249501 0.638575 0.522270 -0.208386 -0.350512 0.938720 -0.935262 -0.945541 0.294088 0.743326 -0.923552 -0.146649 -0.732699 -0.465991 0.089444 -0.711767 -0.675702 -0.517705 0.933493 -0.781827 -0.167060 0.225061 0.608460 0.382752 0.917717 0.077547 -0.675408 0.415694 0.567476 -0.433349 0.695499 -0.750232 0.845317 -0.761149 -0.634816 0.642744 0.599706 -0.748748 -0.205893 -0.441635 -0.567197 -0.887812 0.540387 0.280000 -0.036949 0.998691 -0.994821 0.040167 -0.906020 0.519049 -0.340127 -0.511379 -0.743089 0.900679 -0.295550 0.689278 0.703531 0.237592 -0.798516 -0.661677 -0.799124 -0.878939 -0.329243 0.417778 -0.407268 -0.948526 0.126654 0.681363 -0.330299 0.657915 -0.428407 -0.236232 -0.346811 -0.847859 0.039473 -0.584716 0.674675 -0.736434 0.754162 -0.801169 0.747819 0.599064 0.466014 0.303627 -0.934361 0.197404 -0.238069 0.768239 -0.211999 0.935865 -0.923521 0.374227 -0.366747 0.090622 -0.909676 -0.921049 -0.066015 
0.489683 0.095860 -0.888833 -0.616063 -0.177673 -0.154314 0.450397 -0.170038 0.163205 0.991259 0.091802 0.912561 -0.588129 -0.686225 0.611312 0.316415 -0.009661 -0.364346 0.433975 -0.182431 -0.117408 0.716724 -0.020440 0.471625 0.604740 -0.131280 -0.423459 0.916296 0.192438 0.305865 0.667415 -0.762538 0.021206 0.409765 0.914613 -0.091340 0.840992 0.548691 -0.143497 0.239784 0.054620 -0.000281 -0.722549 0.000000 0.125568 0.414508 0.630645 -0.742563 -0.257418 -0.427093 -0.153129 0.359272 0.286196 0.093911 0.369849 0.045676 -0.330074 0.447490 0.957839 0.394407 0.798967 0.245100 -0.608752 0.700723 -0.956229 0.659051 0.662534 -0.794236 -0.728327 -0.994556 0.489364 0.748086 -0.922547 0.756070 -0.730117 0.926828 -0.799539 0.149613 0.544440 0.398558 0.566620 -0.823992 -0.833996 -0.969155 -0.580956 -0.125734 0.788833 -0.080785 0.247941 -0.863423 0.448011 -0.284595 0.811659 -0.446392 -0.512980 0.340102 0.088958 -0.877488 0.057661 -0.886670 -0.268151 -0.806653 0.576293 -0.245712 0.317468 -0.315241 -0.262191 -0.650023 -0.941369 0.412174 -0.589764 -0.164890 0.701781 0.828397 0.865752 0.685479 0.848246 0.476434 -0.577463 0.581161 -0.427032 0.871484 -0.976580 0.623767 -0.348117 -0.808964 -0.255569 0.656992 0.058493 -0.915302 0.518958 0.123948 -0.802302 -0.287570 0.812289 0.134108 -0.051038 0.197598 -0.963094 -0.718162 -0.142505 0.918169 -0.341957 0.721583 -0.358913 -0.253145 -0.611468 -0.939971 -0.087681 0.348240 0.868802 -0.050894 0.618968 0.987029 0.990051 -0.212790 -0.357317 0.564864 -0.332785 0.880380 0.544671 0.284836 -0.766224 0.066008 -0.607188 0.995789 0.230526 0.442983 -0.789629 0.701090 -0.778265 -0.304821 0.880557 -0.470399 0.008007 0.570029 0.474423 -0.379442 0.715700 0.764882 -0.627192 0.783778 0.963445 0.613077 -0.017012 0.077773 -0.874876 -0.045157 -0.954434 0.822613 -0.337410 -0.855596 -0.006782 0.018550 -0.224364 -0.878830 -0.490453 0.958027 -0.448029 -0.017331 
0.723550 0.704273 0.708191 0.565413 0.903552 -0.009716 0.699291 0.989926 -0.314389 0.063508 -0.621095 -0.735410 -0.040348 -0.127715 -0.511867 -0.950916 -0.039259 0.178851 -0.050075 0.390967 0.980522 -0.369325 0.755155 -0.111781 -0.706628 -0.297989 -0.308265 0.995650 -0.103720 0.771518 0.900605 0.464643 -0.737892 0.242020 -0.364407 -0.587664 -0.862220 0.675043 -0.554197 -0.390077 -0.022640 -0.505371 0.226309 -0.417685 0.000000 -0.024954 0.598247 0.731488 0.113064 0.263298 -0.753709 0.405927 0.416315 -0.997172 0.528774 -0.903310 0.072369 0.303458 0.221615 0.680570 0.343898 -0.103201 -0.498402 -0.642855 -0.466608 -0.275236 0.112336 0.039166 0.270385 0.363505 -0.563139 -0.669562 0.672301 -0.642089 0.409257 0.378439 0.432359 0.649706 -0.398297 -0.172739 0.769011 0.773983 0.326219 0.763384 0.192122 0.999602 0.310129 0.340224 0.149062 -0.711666 -0.975799 -0.247045 -0.079316 0.944127 -0.057559 0.598250 0.793191 -0.843014 -0.544342 -0.756069 0.742827 0.690540 -0.097418 0.698201 0.669554 -0.808840 -0.166163 -0.699708 0.011359 0.910418 -0.611670 -0.342078 0.698889 0.225892 0.573755 -0.903463 -0.501411 0.786449 -0.144642 0.998186 0.510203 0.978783 0.409110 -0.093644 0.117369 0.619005 -0.380867 0.771048 -0.993337 0.979237 0.043561 0.124858 0.485853 -0.267606 0.338350 0.640209 -0.005202 0.575519 0.742933 0.481604 0.325399 0.976186 0.752245 0.973442 0.643628 -0.539287 0.201814 -0.107107 -0.142434 0.108356 -0.864363 0.645350 0.401249 -0.208283 -0.612166 -0.677005 -0.414728 -0.330139 -0.643741 0.644038 0.344333 -0.788927 0.509187 -0.088102 -0.730116 0.936298 0.361185 0.432053 -0.488901 -0.953085 -0.492765 0.099994 0.592312 0.979496 0.397448 -0.088220 -0.717357 -0.612716 0.080194 -0.174845 -0.614755 -0.193840 0.126464 -0.513455 0.366127 -0.501869 -0.916060 -0.215750 -0.114180 0.975267 -0.684330 0.470864 -0.181763 -0.886490 0.758087 -0.827037 -0.002563 0.918099 0.490693 -0.928746 
0.573650 -0.672222 -0.041531 -0.016367 0.925543 -0.397469 -0.265907 0.895519 0.983097 0.918636 -0.477114 -0.850508 -0.480954 0.602827 -0.290317 0.649717 -0.200133 0.364056 0.695769 -0.204677 -0.007330 0.809982 -0.638195 -0.145767 0.095125 0.764349 0.421664 0.910874 -0.933235 -0.881206 -0.430716 0.953022 -0.555155 -0.483675 0.877468 -0.397561 0.200531 0.329008 -0.368576 -0.657414 0.848250 0.534850 -0.779412 0.419286 0.937553 0.000000 -0.553856 -0.665213 -0.235218 0.698129 -0.540591 0.292207 -0.883502 0.982294 -0.589959 0.565191 -0.838408 0.879941 -0.828567 0.271550 -0.051475 0.859422 0.312912 -0.891569 -0.596499 0.635492 0.707839 0.654438 -0.852473 0.492221 0.766054 -0.924871 -0.305292 0.958487 -0.702615 -0.856068 0.064292 0.559231 -0.998701 0.837918 0.890256 0.530521 0.463106 -0.577449 0.817611 -0.407377 -0.780522 -0.238794 0.587544 0.846820 0.502981 -0.394743 -0.439995 -0.999735 -0.550537 -0.873609 -0.751015 -0.309699 0.895348 0.114530 0.899299 0.526563 -0.048761 0.474586 0.368099 0.634681 -0.919498 0.005421 -0.884321 -0.786685 0.190134 -0.411779 -0.767402 0.282559 0.961171 0.395977 -0.821050 0.616856 -0.507074 -0.397509 -0.936377 0.316284 -0.213644 -0.720865 0.419192 -0.646082 -0.699136 -0.379738 -0.254812 -0.621292 -0.056107 -0.997706 -0.443501 0.071758 0.041319 0.453819 -0.663630 0.366017 -0.356844 0.523546 -0.766796 0.466152 0.615725 0.485164 0.144108 0.018504 0.996584 -0.413337 -0.955435 0.006595 0.835625 0.347344 -0.191637 -0.847374 0.185361 -0.634834 0.339754 0.245775 0.746809 -0.387100 0.007535 0.646863 -0.173084 0.971738 -0.001055 0.262278 0.099263 0.319751 0.047758 0.669293 0.805310 0.846588 0.611366 -0.770670 -0.652825 -0.025933 0.137263 0.984744 0.595840 0.283027 0.833324 -0.319820 0.792280 -0.147949 -0.581323 -0.299941 0.890843 0.391746 0.076166 0.128517 -0.016165 0.311763 -0.205749 -0.022364 0.130798 0.318174 -0.448133 0.222895 0.188810 -0.663634 
0.308728 0.786547 -0.507413 -0.085761 0.609974 -0.165519 0.118573 0.854380 -0.431187 -0.955414 0.351456 0.916722 -0.659739 -0.232224 -0.991825 0.402948 0.339135 -0.165362 0.762602 -0.945425 0.248442 -0.429446 0.303874 -0.787606 0.705225 0.708264 -0.211262 -0.687859 -0.853015 -0.615888 0.771271 0.758108 -0.486621 -0.634930 0.727193 -0.063169 0.315013 0.422418 -0.419596 -0.141806 0.660102 0.327745 0.408893 0.268612 0.564213 0.731617 0.000000 0.285914 -0.637504 -0.536898 0.359353 -0.350028 -0.920353 -0.380338 -0.334236 0.492114 0.961544 0.670393 -0.713220 0.914870 0.220989 0.162259 -0.918779 0.079192 0.987598 0.566287 -0.416747 -0.263554 0.445184 0.200171 0.275342 -0.321554 -0.351710 0.805808 -0.792220 -0.834200 -0.403178 -0.205486 0.393415 0.118548 0.441852 0.212000 -0.911947 0.903002 0.755638 0.001550 0.046055 0.048949 0.689396 0.676590 -0.559866 0.325630 0.871182 -0.047504 -0.392229 -0.193317 0.928359 0.933829 0.869312 0.534398 -0.373573 -0.642683 0.425267 -0.536366 -0.698691 -0.902487 -0.104322 0.658690 0.610731 0.558780 -0.588557 0.121733 -0.039102 0.805584 -0.548392 -0.817166 -0.110301 0.167499 -0.848975 -0.715420 -0.057164 -0.762484 0.929628 0.263910 -0.464429 0.346772 0.199773 -0.420633 0.419196 -0.574799 -0.652962 -0.326463 -0.869410 -0.177294 0.224162 -0.515341 0.656340 -0.896577 -0.775784 -0.609259 0.180687 0.798389 0.525939 -0.547882 -0.257435 -0.705258 0.730805 0.634911 0.943207 0.480759 0.122448 -0.014074 -0.539841 0.894633 0.102931 -0.036431 -0.297729 0.074768 0.629295 0.567290 0.439499 0.667642 -0.946401 -0.153295 -0.435133 0.718939 -0.786378 -0.659755 -0.496442 0.292448 -0.832730 0.310681 -0.387297 0.700472 0.828332 -0.224399 0.523893 -0.928293 0.182258 -0.791497 -0.681821 0.634286 0.447341 0.468458 -0.619094 0.880505 0.645738 0.919441 -0.961428 -0.719576 0.085368 0.778951 -0.171806 0.464873 -0.876518 0.355934 0.189458 0.214425 -0.162625 0.758393 
0.318551 -0.116068 -0.761928 0.275628 0.481301 -0.768034 -0.342489 -0.213861 -0.367014 -0.405548 -0.053586 -0.622597 0.019697 -0.960538 0.232906 0.449598 0.392743 0.830138 0.123897 0.341900 0.318372 0.881517 -0.340518 0.917085 -0.551508 0.802212 0.782778 0.154110 0.119383 0.472873 -0.419870 -0.757580 -0.644287 -0.534337 -0.596712 -0.930531 0.566974 -0.865777 0.884117 -0.637367 -0.235523 -0.427892 0.417385 0.985539 -0.043108 -0.509660 0.149690 0.000000 -0.153002 0.495714 -0.528397 -0.765236 0.682861 0.846144 -0.851390 0.686824 -0.551751 0.727272 -0.734299 0.642213 -0.327505 -0.379096 0.538503 0.616185 0.221310 -0.435371 0.722545 -0.190213 -0.916638 0.069393 0.292473 -0.399963 -0.175786 -0.435401 0.218167 0.725492 -0.657232 -0.097009 -0.424909 0.556315 -0.013123 -0.550944 0.281996 -0.492880 0.167882 -0.404523 -0.817604 0.522080 0.598345 0.390396 -0.611210 -0.610188 0.562854 -0.119362 -0.118714 0.767859 -0.590380 -0.519943 -0.682636 0.937811 -0.206496 -0.580806 0.386734 -0.161190 0.873378 0.865191 -0.728266 0.039761 0.260370 0.036256 -0.638412 0.208632 0.478030 0.249218 0.603713 0.604015 -0.311819 -0.733885 -0.404481 -0.105781 0.146987 0.413610 -0.462805 -0.365433 0.165726 -0.635212 -0.015633 -0.752011 0.956131 -0.309428 -0.562071 -0.722476 -0.659592 0.236134 0.711178 0.765515 0.004242 -0.706354 0.300378 0.456083 -0.608505 0.863991 -0.903675 -0.067387 -0.565189 0.868774 -0.513323 0.577217 -0.709039 -0.811644 0.702221 0.220199 0.886670 0.266554 -0.027055 -0.719779 0.681085 0.998016 -0.352433 0.665090 0.161621 0.364902 0.910475 0.355340 0.203950 -0.218711 0.118893 0.228075 -0.744319 0.237279 -0.046864 0.360670 -0.216977 -0.740107 -0.973117 0.825345 -0.432812 -0.269928 -0.684507 -0.505269 -0.056460 -0.922361 -0.127579 -0.224407 0.387652 -0.738109 0.604809 -0.972993 0.906110 0.992771 -0.505338 0.791467 0.189073 -0.253428 0.641573 0.919236 -0.406173 -0.550876 -0.574775 -0.242015 
0.459716 0.454848 0.623833 0.766264 0.593614 0.875048 0.931976 -0.280107 0.245321 -0.892229 0.313254 0.854332 0.764497 0.906098 0.792494 -0.557336 0.851272 -0.667803 0.232967 -0.524005 -0.952493 -0.554278 0.254099 0.634018 -0.060178 0.594755 0.051641 -0.076475 0.683023 -0.434333 0.162309 -0.064609 0.113390 -0.247537 -0.358315 -0.200456 0.942042 0.894597 -0.504630 0.685075 0.061109 -0.934973 -0.091345 0.765655 0.365943 0.399671 -0.726386 -0.362807 0.000000 0.298591 0.425976 -0.626197 -0.492695 -0.723171 -0.333561 -0.159416 0.700485 -0.944265 -0.262427 -0.607865 -0.390060 0.267108 -0.713379 0.246548 -0.272501 0.083709 0.905243 0.417269 -0.957388 -0.825165 -0.553316 0.419840 0.249241 -0.998128 0.457449 0.353343 0.632927 -0.404045 -0.776135 -0.505208 0.977216 0.062545 -0.799045 0.450417 0.153300 0.515385 0.069540 0.763352 -0.341793 -0.508305 0.915049 -0.771776 0.768126 -0.107358 -0.359517 -0.398029 0.319878 0.194766 -0.569286 0.013348 0.337279 0.647605 0.302915 -0.903259 0.931845 -0.479724 -0.713112 0.720758 -0.223624 -0.443277 -0.152739 0.922622 0.506088 -0.170789 -0.456518 -0.693686 -0.777235 -0.996461 0.486699 -0.053730 0.955361 0.757324 0.349191 0.859279 -0.092898 0.655432 -0.161331 0.502239 -0.875407 -0.961520 -0.273408 0.835986 0.409493 0.348303 -0.076908 -0.595454 0.211920 -0.253700 0.064603 -0.220799 -0.977067 0.430873 -0.313955 -0.639608 0.109530 0.864317 0.575550 -0.724983 -0.790331 0.908833 0.764055 -0.534353 -0.867316 -0.981094 0.757354 0.847262 -0.075883 0.629806 -0.850173 -0.854343 -0.935143 -0.956031 -0.010939 0.149860 0.691883 0.481704 0.006221 0.557718 -0.426340 0.510375 -0.133396 0.011405 -0.308229 -0.405053 0.270869 0.493460 -0.424193 0.583081 -0.157159 0.636462 -0.977577 -0.144683 0.311594 0.963125 -0.764922 -0.049664 -0.697848 -0.734129 -0.511086 0.175252 -0.544043 0.268288 -0.891017 0.684072 -0.803026 -0.456259 -0.349926 0.799789 0.047043 0.648318 
0.287309 0.807120 -0.727963 -0.871111 -0.766739 -0.580565 0.444472 0.235828 -0.435223 -0.800910 -0.898685 -0.190904 -0.517461 -0.973989 0.169122 0.434390 0.800146 0.055644 -0.793288 -0.793839 -0.057897 0.925354 0.416682 -0.827176 -0.340566 0.108496 -0.509628 0.682744 0.885748 0.774209 0.132088 0.011304 -0.006958 -0.945045 0.624476 -0.434975 -0.618608 -0.946230 0.714803 -0.308063 0.378943 0.892867 0.418671 0.600735 0.544773 0.004602 -0.652658 0.779507 -0.827199 0.000000 -0.731462 0.322129 0.026950 0.943255 -0.706691 0.638689 0.441687 -0.565844 -0.145244 0.883574 0.229714 0.794906 -0.013785 0.315138 0.519979 -0.713920 -0.848194 0.399259 0.340578 0.098339 0.790293 0.454711 0.319938 -0.801659 0.521288 -0.716187 -0.956304 -0.609541 -0.560622 -0.372121 -0.245511 -0.301603 0.956934 -0.807846 0.537767 0.243055 -0.971006 0.308084 -0.038120 -0.685269 0.681900 0.695211 0.402882 -0.769956 -0.648395 0.421183 0.827080 0.737694 0.426341 -0.482779 -0.064363 0.252961 -0.491406 0.942332 -0.220778 -0.614143 0.101185 0.616046 -0.115690 -0.408137 0.439705 0.128493 -0.410332 -0.457399 0.487804 0.522392 -0.158347 0.657714 0.196816 -0.119706 0.104627 0.463355 -0.389903 0.900384 0.753896 0.724464 0.068187 0.013944 0.350993 -0.857070 -0.777021 0.602135 0.087838 0.295836 0.120620 -0.735845 0.658902 0.161993 0.619376 -0.139979 -0.629006 0.291477 0.850136 0.228483 0.121301 0.709626 0.677189 -0.480301 -0.420096 -0.545574 0.540100 -0.532700 0.904837 -0.404507 -0.555045 -0.648203 -0.354306 -0.814978 0.664070 -0.967406 0.815638 0.434159 0.917109 -0.154868 -0.862685 0.860507 0.542795 0.762975 -0.675564 -0.198720 0.106271 0.097561 -0.298370 -0.711424 -0.908795 -0.109285 -0.751216 0.319782 0.568431 -0.384738 -0.283815 -0.077435 0.550137 0.146078 -0.868597 -0.514050 0.368551 0.233725 0.222051 0.015428 -0.704130 -0.306450 -0.512064 -0.253487 -0.355099 -0.155009 0.767256 -0.727876 0.583075 -0.256475 
-0.578069 0.390884 -0.414857 -0.504649 0.371050 0.238898 -0.842921 -0.969238 0.013021 0.847551 0.781490 0.505715 -0.451795 0.680835 0.788619 0.311290 -0.146242 0.105466 0.571794 0.150027 -0.497401 0.173711 -0.431998 -0.585803 0.402701 0.198797 -0.812197 -0.587367 0.127185 -0.406562 0.905966 0.572826 -0.515583 0.603423 -0.266318 -0.014304 -0.414676 0.535724 -0.092088 0.283254 0.643029 -0.618383 0.839808 0.645968 0.788970 0.214861 -0.824966 0.800894 0.622007 0.067017 0.000000 0.358111 0.774525 -0.556499 0.920454 0.078581 0.718885 0.306749 -0.469418 0.492454 0.667061 -0.703598 0.633924 0.364844 -0.069731 0.036602 -0.829023 0.604166 0.219010 0.903742 -0.800232 0.504680 0.154084 -0.316389 0.448829 -0.524210 -0.396925 0.875934 -0.181831 -0.040942 -0.117966 -0.656903 -0.566223 -0.511557 0.259036 -0.385994 0.596994 -0.326455 -0.721226 0.359187 0.855332 -0.433744 0.071213 0.876657 -0.033021 -0.984710 -0.021165 0.273681 -0.245726 0.081706 -0.759571 -0.116917 0.973403 -0.021629 0.485645 0.238217 -0.285620 -0.423149 0.139600 0.249169 -0.213313 0.848160 -0.973824 0.944243 -0.107463 -0.131078 0.971322 -0.989643 -0.931796 -0.695612 0.849849 -0.587958 0.188024 0.127083 -0.117798 0.168589 -0.530872 -0.366928 -0.953037 0.307591 -0.319640 -0.185020 0.376588 -0.693785 -0.445990 0.253276 0.808690 -0.352159 -0.740534 -0.158303 -0.597967 -0.033381 0.968856 -0.433227 0.758702 -0.495446 -0.968436 -0.496071 0.529845 -0.898638 0.595521 0.925642 -0.728793 -0.831022 -0.982525 0.695025 -0.713140 0.248922 -0.373795 -0.376941 0.748108 -0.548587 -0.105337 -0.396612 0.147432 -0.115401 0.457454 0.430292 -0.087540 0.707483 0.671962 -0.337729 -0.216064 0.605212 -0.201149 -0.707321 0.053853 -0.892189 0.971310 0.814635 -0.428802 -0.873509 0.927350 -0.031031 0.456693 -0.364679 0.833363 0.324071 0.669186 -0.986882 -0.517670 -0.473785 -0.898980 0.846411 -0.365847 -0.797582 -0.962230 -0.205318 -0.781986 -0.841408 
0.447475 0.713812 -0.953827 -0.974979 -0.466014 -0.291215 -0.446707 0.192637 -0.342821 0.200600 -0.518732 -0.323103 -0.397038 0.989873 0.789680 0.143673 0.704042 0.832088 0.897382 0.300471 0.008647 -0.668244 0.825387 0.274895 0.166102 -0.317642 -0.608440 -0.046250 0.681022 -0.071113 0.796480 0.444446 -0.198300 -0.836332 -0.228132 -0.221502 -0.789563 -0.183527 -0.538850 -0.456723 -0.137241 -0.614792 -0.804594 -0.819447 -0.441588 0.227132 -0.591542 -0.053042 0.516490 0.641045 0.042349 0.000000 -0.248543 0.735741 -0.396606 0.239830 0.819726 -0.866112 -0.746251 -0.237536 -0.260363 0.080701 0.339118 -0.442697 -0.410458 -0.575622 -0.477632 0.430729 -0.733853 0.139374 0.455118 -0.839173 0.011277 -0.467477 -0.891575 -0.703893 -0.326037 0.291608 -0.942672 0.515496 -0.065733 -0.780169 -0.306516 0.389427 -0.897431 0.881877 -0.287526 -0.442187 0.160731 -0.599257 0.291865 -0.621592 0.896010 -0.766454 0.213368 0.075070 -0.302536 -0.718016 0.311625 -0.514528 0.330134 0.560750 0.529257 -0.783170 -0.737072 0.027027 0.244890 -0.130994 0.382244 0.379728 0.084479 -0.167129 -0.938125 0.936235 -0.702654 0.500510 0.079653 0.734483 0.456654 0.977796 -0.182371 0.898533 -0.362997 -0.893565 -0.154750 -0.880171 0.960697 0.438171 0.345193 -0.341120 0.790687 -0.927906 0.676720 -0.367215 0.215432 0.769459 0.290756 0.742539 -0.149757 -0.957873 -0.969363 -0.091036 -0.034489 0.335461 0.086948 -0.661435 -0.744736 -0.780094 0.963078 0.449420 -0.602064 -0.893722 -0.786273 -0.882981 -0.261627 0.835114 -0.245180 -0.740013 0.603020 0.957423 -0.588186 0.362840 0.243901 -0.752653 0.164710 0.285239 0.016999 -0.291480 -0.895967 -0.513771 -0.946068 -0.564798 -0.562132 0.255306 0.926823 -0.886208 -0.499853 0.971102 -0.693003 0.702233 0.421979 0.193924 -0.717029 0.890646 -0.914864 -0.113173 -0.097689 0.137698 0.285025 0.413864 -0.184536 0.503380 0.303894 -0.457897 0.129163 0.849277 -0.198505 -0.269682 -0.540413 -0.720296 
